{"HiddenLayer":[3.2081801402632186e-11,0.9999999998656355,0.9999976225246494,0.09440557778616401,7.835373230595786e-8,6.948545658429142e-10,0.9999538228033589,1,1.4657801834315954e-26,0.9978555974725363,0.9999999999999798,1,8.361497422718743e-13,1,0.9882078983357588,0.00007290486487917336,0.9999494768006912,0.9999532162080218,0.9999999999999236,3.153722571892218e-17,1,1,0.016399602727797138,0.9999999901619242,0.9997128991936137,0.9999959103685495,3.285599996494485e-8,0.9999999999998836,0.9999999898967845,1,0.9999998879021587,0.9999999999153246,1],"InputLayer":[1,1,1,1,1,1,1,-1,-1,-1,-1,-1,-1,-1,-1,-1,-1,1,1,1,1,1,1,1,1,1,-1,-1,-1,-1,-1,-1,-1,-1,-1,-1,-1,-1,-1,1,1,1,1,1,-1,-1,-1,-1,-1,-1,-1,-1,-1,-1,-1,-1,-1,-1,-1,-1,1,1,-1,-1,-1,-1,-1,-1,-1,1,1,1,1,1,1,1,-1,-1,-1,-1,1,-1,-1,-1,-1,-1,-1,1,1,1,1,1,1,1,1,1,1,-1,-1,-1,-1,-1,-1,-1,-1,1,1,1,1,1,1,1,1,1,1,1,1,1,-1,-1,-1,-1,-1,-1,1,1,1,1,1,1,1,1,1,1,1,1,1,1,-1,-1,-1,-1,-1,1,1,1,1,1,1,1,1,1,1,1,1,1,1,1,-1,-1,-1,-1,-1,1,1,1,1,1,1,1,1,1,1,1,1,1,1,1,1,-1,-1,-1,-1,1,1,1,1,1,1,1,1,1,1,1,1,1,1,1,-1,-1,-1,-1,-1,1,1,1,1,1,1,1,1,1,1,1,1,1,1,1,-1,-1,-1,-1,-1,1,1,1,1,1,1,1,1,1,1,1,1,1,1,-1,-1,-1,-1,-1,-1,-1,1,1,1,1,1,1,1,1,1,1,1,1,1,-1,-1,-1,1,-1,-1,-1,-1,1,1,1,1,1,1,1,1,1,1,1,1,-1,-1,-1,1,1,-1,-1,-1,-1,-1,1,1,1,1,1,1,1,1,1,1,-1,-1,-1,1,1,-1,-1,-1,-1,-1,-1,-1,-1,1,1,1,1,1,-1,-1,-1,-1,-1,1,1,1,1,-1,-1,-1,-1,-1,-1,-1,-1,-1,-1,-1,-1,-1,-1,-1,-1,1,1,1,1,1,1,-1,-1,-1,-1,-1,-1,-1,-1,-1,-1,-1,-1,-1,1,1,1,1,1,1,1,1,1,1,-1,-1,-1,-1,-1,-1,-1,1,1,1,1,1,1,1,1,1,1,1,1,1,1,1,1,1,1,1,1,1,1,1,1,1],"OutputLayer":[0.9951620358679868,0.996711368481711,0.9973046864710199,0.9946519056285351,0.9973043032743361,0.996911369360081,0.9980572367860808,0.9970535648827183,0.9987243210221498,0.9988109940071007,0.9956146588008893,0.9970497568539946,0.9986131608656098,0.9992451092650633,0.9969411703213138,0.9990393776918689,0.9960099725625284,0.9956563443731231,0.9990596490866058,0.9959547794031909,0.9953691317512562,0.9992527341183806,0.9959469445360875,0.9942666535952704,0.9977984154401371,0.9950513421321062,0.9978005725590429,0.9990587410710415,0.9961565452709094,0.000015633621345606122,0.00003167200214329456,0.000010491494510031741,0.000044796140467106414,0.9959180388769445,0.9963009640120339,0.9958083694290527,0.9988724074910705,0.9979240946414587,0.9993277800464697,0.9985725874979307,0.9983303552588997,0.9970629833886462,0.99668068933006,0.998491994878382,0.9985367450945279,0.00002728598535897447,0.000028881191356667027,0.000021633615081755823,0.00003663829816315344,0.000005333937047576151,0.00000885227920776661,0.00002284576391771764,0.00001905070967349594,0.00002068530542339188,0.000014164148481870481,0.000028968649183149624,0.000011840441830218759,0.9956635838364948,0.9985820969092086,0.9975599737497829,0.9970946560239214,0.9984944903428112,0.9957880575732857,0.000025595222431899896,0.000025007991652709444,0.000021775267242604108,0.00002510540115321384,0.000022171298151911378,0.000014585729040810831,0.00000814900015453015,0.000011584744422478069,0.000011661995413355277,0.00003967161720571792,0.000030045528095588395,0.00002134773824044824,0.000012546805876944735,0.000022676559775532555,0.00001599460908992352,0.9976288408940571,0.9982932670894331,0.9970280237392112,0.9955466906240074,0.000021701806452947886,0.000018592398995543403,0.00001599464679021242,0.000025531386034526312,0.00003419277953864186,0.000027655106247338156,0.998316560249074,0.9967259392942623,0.9962220000441759,0.9954043089694425,0.9974177085621719,0.9960252815495675,0.999179233281262,0.000032497853221098046,0.000011305680034427833,0.00003112981400201573,0.000012169011930389824,0.9965825391010783,0.998980602458243,0.00001395154799908235,0.00003263222688327297,0.000015519728199655264,0.000011581419067250483,0.9963009219967031,0.9985762086246639,0.995656206045468,0.9961889976212714,0.9984883671022255,0.9980146776775876,0.9974693042643301,0.9977427118695109,0.998786295752073,0.9975839019891855,0.9973813266857735,0.00002828666356414018,0.00001684966179103683,0.00004040953673287232,0.00001241812216028294,0.000014604207501892845,0.0000403561039389532,0.000015016191154642472,0.00003704891884414488,0.996758183425497,0.9970876200864155,0.998138177564114,0.997465611159965,0.9956801514463612,0.9980577144737969,0.9983675675532812,0.9988506779183876,0.9978030361296825,0.9980549031496003,0.9984657336966691,0.9961520636043254,0.9982147572589609,0.0000317309510129237,0.000022968738002566266,0.00001308817595386294,0.000024104827363971505,0.000020591943336066962,0.00003267342881063186,0.9968057935022269,0.9980483742869564,0.9963781177062974,0.996674727831221,0.9968222971113766,0.9985511293191706,0.9989469034172755,0.9992784704208679,0.9978867933156893,0.9983556673026412,0.9974594006181635,0.9967953205943788,0.9980018264762851,0.9979512543401199,0.9953432142369915,0.000017164858867125705,0.000021343971139184472,0.00001391765361343128,0.00002168390892260659,0.9970474383424539,0.9994161207056834,0.9959113322238653,0.9966512701081991,0.997473060656557,0.995793368338409,0.9963425196346432,0.9971429523589,0.9969835871495898,0.9969316879415209,0.9953595594492484,0.9975932728737468,0.9953866947018591,0.9974390956267392,0.9970728096526417,0.9988453783251439,0.00001985546529365973,0.000009421059102795966,0.00001890202983327387,0.000007009919614146242,0.9987570195825244,0.9984728288825865,0.9955256487228302,0.9957680801934343,0.9963514558219819,0.9971664660024159,0.9985921104894023,0.9987161896842972,0.9962289141334522,0.9966393774991691,0.9988617122958174,0.9972686228287303,0.9993494296759164,0.9971233766225553,0.9954918567141744,0.9970890529214811,0.000012043174409961769,0.00004829973885090766,0.000009654333268527988,0.00003567317849110683,0.0000283226068608004,0.9981523877570345,0.9975553272872653,0.9962037022547061,0.9950865195024663,0.9962926399117897,0.9945370835260361,0.9975449714912142,0.9977122513485933,0.9965399942819455,0.9980983461532473,0.9983885844371618,0.9982649209590869,0.9984590487439143,0.9975863899980753,0.9957997742460346,0.000034270216056780243,0.00002223578262374891,0.000005701091847286662,0.000011050178974381679,0.000010278556462417922,0.9977424466807301,0.9968482047234789,0.9958087936110576,0.9959702218283022,0.9974725726464081,0.9972727295340429,0.9974838678731754,0.9968693719961351,0.9963886785621436,0.997474623857068,0.9983868888844343,0.9966309490086827,0.9987555167955978,0.9977966292581932,0.9994003774825503,0.0000367237401198367,0.000011255953057535611,0.000028650602587070064,0.00003603340402904148,0.000035454797408621084,0.000017276983488103645,0.9970341163814118,0.9977511188877087,0.9981920629863434,0.9957643185474221,0.9975266105018482,0.9946887083484136,0.9987180876873457,0.9948384996095794,0.9962328500620385,0.9980418434982576,0.9992875104854434,0.9977774504590029,0.998213205051777,0.00003318408245386966,0.000012804489192631163,0.000023821427299021878,0.9957532125423625,0.000014133129002601797,0.000012790680163277943,0.000022960530282714553,0.00001859786480325703,0.997077258599743,0.9961027013471508,0.994575207000333,0.998489535391925,0.9966266868435092,0.9988733516537306,0.9978909853233615,0.9972729128526854,0.9962894609101608,0.9988020488623875,0.998269003273812,0.9984086996792177,0.000025132535939159428,0.000024101041689212234,0.000015166882079455757,0.997105813512676,0.9973644687920413,0.000013127140819612554,0.000025833265082094867,0.00002817312276683911,0.000026017942874096604,0.00004351198364705034,0.000023235819433786857,0.000012859356377587586,0.9961528811478811,0.9966920767186283,0.9979651277391948,0.9959360910980876,0.996259245970276,0.000029094977803966234,0.000026692734741796624,0.00001536058862279193,0.000006627120662612433,0.000006034055565972635,0.000013201202042243109,0.9973775285605504,0.9980999603221808,0.9978444955972667,0.9971615652153812,0.000034468857010202356,0.00001595555672992847,0.000009562152408601431,0.000014320534539306312,0.00003212096061267026,0.000033688610357121005,0.000025154660230445595,0.000026047599637160966,0.000028273713897196453,0.000023902056533597464,0.00002782936417597001,0.000025446176349463027,0.000018827754695470158,0.00000843560527001016,0.9985811473889852,0.9979726193810055,0.9958520160266687,0.9976480041121383,0.9966562180435657,0.998493946610039,0.9964770218536619,0.00004144197063641338,0.000013513032141139352,0.000023683081552824844,0.000009483559424209383,0.00004643388096083276,0.000016169688452339584,0.000015998052060605083,0.000011746115831267127,0.000014330050544504988,0.000021507613623452868,0.0000211407684795408,0.9987595805432883,0.9987505904089442,0.9968174111494075,0.9976193518093065,0.9975853006136797,0.9958106253876923,0.9989029359151752,0.9945659018348512,0.997893024965678,0.9951653385792792,0.9980563765561838,0.9984984460211944,0.9982732260612741,0.9975564026750762,0.9958096929379496,0.9988971294411779,0.9966786443627901,0.9968832115425715,0.9968152892585015,0.9956783706657035,0.9961042653282411,0.9987233437363721,0.9979485649917245,0.9961879139796598,0.9950422914448264,0.9972009388876173,0.9965665331624048,0.9993498417885261,0.998220428370598,0.9978389888427782,0.9960466804957664,0.9966615222800217,0.9980837569345916,0.9970449621686904,0.9985105856620193,0.9958825262698348,0.9949198177558288,0.9948161801905756,0.9979222322179622,0.9981182129550925,0.997102409629281,0.9971780064004799,0.995720115326623,0.9979708378059341,0.998510613616887,0.997731035978855,0.998496451129544,0.9989293873721679,0.9952482519439305,0.9954971848089226,0.9973758137507088,0.9989344741063098,0.9981175628426794,0.9977063169382596,0.995028784854974,0.9972588576064355,0.9985397629178984,0.9972786219704951,0.9982561509091341,0.998004939419727,0.9967251610680943,0.9976838488855172,0.9966430048488097,0.9942662825155549],"WeightHidden":[[-0.6704610392065978,0.2887045892302506,-0.6064328695435198,0.4230328230944804,-0.9316959683394185,0.44435645916310074,0.4339663230421176,0.8974616763876754,0.5911669463831785,0.8190761613171963,-0.5918268566774162,0.14603217620623593,0.7776913185263868,0.8557157823101801,0.4359444808582582,0.8004987861949625,0.9602226176084274,0.5452579393241522,0.6884171072185025,-0.08588811033486739,0.09372852739134575,-0.4273126022662302,-1.0473041438828805,-0.7112689498948,-0.44445334754008964,0.48704259136506567,0.22190847348092127,-0.0762416716056645,0.16454852485366084,0.6918548688615567,-0.7372776035376363,-0.8218877185868492,0.8643437705868593,-0.24014726457390806,0.5848211102736368,0.37683651303957094,-0.0696364991521243,0.1621057096950979,0.5869945318739173,0.6182391704919824,-0.6190215610835396,-0.010894738624583762,-0.3192924865022828,-0.48465967288782125,-0.8093767522440728,-0.0597457194960977,0.003915192469786354,-0.07757055860977269,0.04904110695874548,0.8443230145454346,0.10420200959514991,0.055176922581453965,0.9469768615502361,-0.8892105667085803,0.7749370842453231,-0.22965321841526734,0.8825243730246175,-0.8562654882093402,-0.43562780149492003,-0.15534986234542877,0.43018134143695197,0.8930488373723838,-0.042109391287602764,0.4294614023974903,0.8093622980883984,-0.1554747214209827,-0.815196542994153,0.28786588288925086,-0.01479921746083314,0.7129270808599902,-1.0070185913290104,-0.8208770877464818,-0.19337464166556673,-0.9243239473424631,0.7718944647663624,-0.9837965849504462,-0.3236322205332362,0.6662333532456266,-0.9132047959602348,0.5755864809911616,0.7941817592163306,0.22110574684106,-0.12271260002407881,-0.23812524396036228,0.1070026350685571,0.11782652099427614,-0.8586326280503007,-0.23276122278715752,-0.2614273157594646,0.46095819801901133,0.8991671847309506,-0.47726471841100054,0.7976919420727524,0.1746759609539664,-0.905350189397294,0.9612129368094804,0.5708021717775151,0.17121118487981155,-0.09083344047866529,0.11216778243319497,-0.2660635650004603,0.2782855456537391,0.8555734947745014,0.12506160594441815,-0.1424674538409982,0.04846961736186059,-0.07625857700893088,-0.17656575762968282,0.29834027736264196,0.10526868965689953,-0.8325857677139911,-0.552315708737118,0.4136349193281727,0.12425911754606925,-0.24985765859540007,-0.11553506326428005,-0.9952272385682748,0.46387743573881496,0.12043073993005568,0.7468217152231684,-0.6264231999402788,0.8690970883527463,-0.6089753047769714,0.9367363337856777,0.16288277274809917,0.2780857822509574,-1.058434897000731,0.07599498842833265,-0.46059100085366006,-1.0367758649566083,-0.6521009914024993,0.8064480966021463,-0.2560434298217142,0.14452280091905015,-0.5768929342391316,0.49170888780548844,0.7400496288949251,-0.3606264934452735,0.03998941727431496,-0.6147382530713144,0.08436540232767027,0.11555916275420981,-0.5279862264520928,0.26723415860302285,0.28670405343797006,0.04594928255718631,-0.32346719030355536,-1.0201740868558362,-0.8581483525294298,-0.9976669166762784,0.4435932237629066,-0.23643939560922292,-0.7225059169673687,-0.7481045454766087,0.30705979710001546,-0.34616216437110675,0.6779313353305245,0.38561396056927616,-0.4047474713318891,-0.04947654104795904,0.7679787579046223,0.1587651757991667,0.1574102326740624,0.8998208841986114,0.4582664710956706,-0.08847082132843571,0.009867913516380786,-0.9010339651591109,-0.16635842768282116,0.6672645484382681,-0.8670861041331274,0.7403492306160898,-0.47338375125966387,0.06995281866550697,0.7607470198066513,0.6057249972088832,-0.20843839846008436,-0.5989497660972795,0.4278641518301894,-0.647141192903189,0.1591754183738604,0.6112828478365667,0.4397601723563888,0.16559068352067405,0.3683531179417185,0.06900400310568401,0.49400146000845285,-0.3578581631119398,0.6677223720084083,-0.8229122149776015,-0.0003242281171622809,-0.9282448151773088,-0.5997096711936869,0.023801732627130166,-0.6012642978859688,-0.8774290373488529,-0.9373220842928313,0.36064067846729997,-0.6064974087896999,0.9463971958981212,0.8225954806169947,-0.5155450391760726,-0.31341211279170295,0.31946484310088413,-0.11344863953908542,-0.025009140048221162,-1.0764211597965851,0.8555068535877882,-0.6573197117556734,-0.31515874443955716,0.5985767872825102,0.38724106964592914,0.6085146260986837,-0.8277197411949839,0.8639692936416675,-0.8918966167114899,-0.13908627326391185,0.9195033899769811,0.7157864198388026,0.9114940318452689,0.2153154780286343,-0.4085309411141418,-0.4092741917402327,-0.3994915628531754,0.8736889271302523,-0.09491643126673517,0.286782157233832,-1.069887632744106,0.7995644330049118,-0.8840314452962206,-0.3568137995958501,-0.18320218131397104,-0.38000878473624483,-0.45720542115033475,-1.0805222978288533,0.7252406741290602,0.8666214339049525,0.3586455181327873,-0.17758353871643043,-0.14995224745960892,-0.7452742140146116,0.3338547590217345,-0.1974289498438402,0.5341424755627876,0.22728642156866422,-0.11050779808643992,0.1310634243345222,-0.11144580446893022,0.16972212525219996,0.7351472860414353,-0.9004104105764651,0.6180906555720115,0.7124012904397187,0.8011913008831474,-0.15324569945456945,-0.5167266405935115,0.25877297360339785,-0.19720729445914867,0.8415082384252699,-0.029229113078553314,-0.004764217709010715,-0.4128467096653674,1.0916490436098807,0.6270444543415578,-0.6490358843274514,-0.17062639453940687,-0.3669900002285484,0.8671628773324355,-0.7981548022215098,0.39087874571300246,-0.26718179753374527,-0.4246196150985733,0.05859726862316326,-0.1561362954221972,-0.461467269493333,-0.6128847506498629,0.13370879204479383,1.0211683300476508,0.10438333748446602,-0.234239445250271,-0.4734529855594665,-0.08432330001815246,-0.6959529759983909,1.0236204346847773,-0.22386427909969844,0.9663682144821778,0.9392961568569655,0.5622342816715877,0.6162646508712009,-0.0198724391222099,-0.09141641825288356,-0.6545462926366282,0.31473823686500085,-0.6594021639635715,-0.19314383444383193,-0.47979924576489935,0.287618162269957,0.2776630921611597,-0.7388586655376345,0.3147050493342814,0.677918802920982,-0.13150973623226153,-1.0271061806099562,0.7340994634756237,0.13159439714592847,-0.5656612138983825,-0.4643261464896816,-0.722159876542675,0.6599363904948143,-0.6288138263699762,-0.006184535357708539,-0.992213534101088,-0.17138399166296048,0.3626913416159135,0.116012944065058,-0.8203671718518791,-0.040613853583100414,-0.12893552632216312,0.32435050805400295,-0.55710292059239,0.5461743470427419,0.4692721546426269,-0.6083187558494604,-0.27962820262800864,-0.883908577100416,-0.7786475041915593,0.6980403284419515,0.04850096844432308,0.7235559528800902,-0.6055290982927611,-0.8388166830963194,0.01032658153565555,-0.37735720299511116,-0.17431846844451557,-0.35548548370960525,-0.3656595288337647,-0.5573122559984073,-0.6056241192658024,-0.7020945588972728,0.817171421777161,0.7236619449798173,-0.5418912640373491,-0.6804400608790665,-0.6780398379091457,-0.9390153426067305,0.38102925751554323,-0.19631938168892082,0.4931970307688465,0.6234133833122928,0.6320364912731968,-0.46962242561644313,0.6757948440465977,0.9468691212894069,-0.5704065747634111,-0.8878126894595957,-0.0768937532351007,-0.25404505401044286,0.5277167001590456,-0.2298877099117613,-0.6052063435659099,-0.29532337907437956,-0.3244493665978841,0.546735501079267,-0.6692609778182813,-0.798335462150042,-0.49275565677009076,0.5915684111742064,-0.6838240387066762,0.39706025993511873,-0.38535688870472234,-0.1298117112193441,0.8637273801912373,-0.9389621544128922,0.604733857278586,-0.23423201174334923,-0.4461566149675244,0.044408934201799,-0.46232563866221593,-1.04333486243586,-0.4851834255903014,-0.8829884405281182,-0.3752392919507303,0.33415183513364183,0.15104196450928783,-0.026991205022215276,-0.45212329665196044,-0.11693026474377254,0.45727619690072896,0.1848479645339205,-0.7391597283367495,-0.13122099498829937,0.12145279669323286,0.6029793310651449,-0.1119171137228827,0.3830383920399974,-0.5107173719980682,0.5716897812750105,0.44933706543086555,0.24577846242775028,-0.20512073981185633,0.8804361121737011],[-0.5858547622315676,-0.7571857839909195,-0.1998757940317845,0.20702998961853478,0.010346123103954701,-0.9520370937128876,0.2176050010200332,-0.11336680682152482,-0.820624899500036,0.8640447419856814,0.09565889560408898,-0.5448631407400799,0.2898546328864088,0.6178281809736383,-0.8907561707183664,-1.0398067264944773,0.2638063403092846,0.4100315294027414,0.4323760389574082,0.39500712424366163,0.2558564285750122,-0.06743274556654796,-0.26947738172496954,-0.5086552359966122,-0.029496637172951364,0.8137293253238123,0.464322319312663,0.2884365486789543,0.7776189646614808,0.4551890910118912,-0.6765575653919226,-0.4446362297727716,-0.0586278542194073,0.9069990362802771,-0.033598293233615274,0.2809450255582203,-0.7440148833342629,-0.929575699582653,0.32574301780312825,-0.8530145095103971,-0.8744218433258384,0.3598741940188925,-0.18766284673534275,-0.2602332127610499,-0.8903453819981803,0.3925561887939429,-0.0011841607265638974,-0.753727504315349,-0.431467824076787,-0.13734721942495826,0.66545958503701,-0.9994105691673607,0.5548389621497192,-1.0359275789498614,0.30739300455541096,-0.8424836356568253,0.8216972834223067,-0.1493999228716136,0.8641999378941849,0.6318942804329897,-0.9306435383101698,0.9513981598381847,0.1158076733718812,0.21761928273866976,0.3023627801233691,0.014597625116226054,0.4523216715615697,-0.10414870263689449,0.03892192512838709,-0.6742286586490006,-0.6344099248282363,-0.5458673494733625,-0.15552866566275908,0.8751592445223434,0.5387039436127389,-0.22877964754492247,-0.35672013603797026,0.22862578254497248,-0.01119128518788225,-0.5238652436217478,0.33886976545008224,-0.7733007004299225,-0.39414505391940907,0.39222661874888437,0.782253529419902,0.9577153242685131,0.5209709657178423,0.9913839613938717,0.6475464795455746,0.013229022641109743,0.1293296335429679,0.6244483388954588,0.7665497020368689,-0.31744707400410516,-0.4366864256359458,0.6861223085693483,0.26319514706775726,-0.6953187133322513,0.5590129156594527,-0.4999707661436568,-0.7892728113628197,0.18450181976692648,0.22077278337024,0.09921219309126403,0.7622491279557992,0.817240390646483,-0.2914555042465945,-0.033630353580650814,-0.7834687519722965,-0.39813103607247713,0.4667083327761017,0.8626939812211308,0.3324259718088054,0.5420334836020052,0.5678928746013138,-0.4743123672070551,-0.19223485861862016,0.4009089891416292,-1.028533428494536,-0.803478671238699,-0.26120282819401125,-0.477850686531664,-0.0000257553376797295,0.3680857510290048,0.07882510640200256,-0.771713645726447,-0.6624301199770678,0.6645175157458884,0.5598862988910124,0.785884952052058,0.8754983784631606,0.5321758675843254,-0.17064855246439972,-0.6381299976665861,-0.6956713139662127,-0.5606814341681005,1.0204740634724403,-0.4002807693245767,-0.5565371194517188,0.7749532928529662,0.8305627402732173,-0.6058040127225721,-0.7270839088562493,-0.49552999544098375,0.5942075589494106,0.192807324887169,0.9130044573111219,-0.002999062975216432,-0.8124054143634424,0.27883923260066495,0.918355172148556,0.4730021165498541,-0.7286515944285797,-0.6747963434535177,0.5894157379708532,-0.7547617981371358,-0.19501932698320548,-0.6406803399387411,-0.34716764149406865,0.32809939749378514,-0.14597722939660152,-0.802546220493399,0.17185100689456437,-0.30346630648878087,0.7407749611579914,-0.379059609505721,-0.41676520397118916,1.041151851302178,0.5010194347817877,0.041366692250329046,0.8830794620989489,-0.18620743584504895,-0.880995274812817,-0.8338325939069261,-0.3997067437146431,0.38056027243728385,0.5457083365283953,0.1097906292293093,0.150005667816932,0.39640912726281763,0.031085727080214152,-0.5400604042529524,-0.2726073201860916,0.20038767306968086,-0.19794435009579758,0.506245895373861,0.028238162558701232,-0.39943908609032946,-0.20045609255629704,0.8552190132995864,-0.753563590180935,-0.5642337936500635,0.7154561096157087,-0.7303079178697226,0.2622993067416656,0.05810036980950938,-0.5885121069509763,0.6223131734382736,0.4988899846688859,0.05685511977881109,-0.5402236411612994,0.5079929916760871,0.8912254268160564,-0.14399928859593936,0.7558281244092485,-0.009291204316984861,0.06187304757777154,1.0107177323327021,0.05839494926403896,1.039548778634651,-0.4116504524307248,0.48381485430400123,0.43999687077780497,-0.4221426142859423,-0.8669861411321558,-0.6368286550421075,-0.3087071777343048,-0.29721548214060173,-0.4982541275292659,0.26928674871229386,-0.020273253452300768,0.3529041598453016,-0.589030925630874,0.37699048431409654,0.7912289827073812,0.4996480691011937,0.361858592131222,0.7179337193046461,-0.07920912308734529,1.0385878250702127,0.547945915911887,-0.8357951494449734,-0.851127932229721,0.8215959351601895,-0.06642900070333713,-0.8233942711123676,-0.38174812640108635,-0.33143575460352726,0.43444188368747594,0.12282848090908008,-0.03766306476584102,0.9118485067119962,0.7209206720056788,-0.007386090324288872,0.743893502268366,0.44526000113430014,0.36888650197908096,0.765088721213869,1.007338151897626,0.3353832912058347,-0.6304246413161957,0.6092346445718427,0.2750905415999078,0.7013539390977391,-0.46264326824937135,0.14952371545683826,-0.7686304590249489,0.5818720717153033,-0.19127680270936429,0.5467422306763218,0.06724310390973312,0.00971170191826424,-0.27017197329339276,0.3119820394174327,-0.7394418020839999,0.9550199972954255,0.09544143767506019,-0.3354468304275852,-0.24813263664885699,0.032962257486595405,0.14296033101013073,0.7272241092611406,-0.8469408603264708,0.6047366045267356,0.13074048241730032,-0.47773471575449755,0.27556961487107423,0.08968696132272347,-0.24518875615707678,0.1935040328989455,-0.1416636910965252,-0.6510247709040742,-0.4953526994112401,-0.27387297201397004,-0.4255630753007463,-0.055495188752868976,0.5510134216500249,0.4671725901473126,-0.0939663947572045,-0.9009361012488375,-0.5802403516596474,-0.5470719561792616,0.43909998006241907,0.9859023190490429,0.7439410462714224,-0.735718076108525,-0.5366869436682273,0.3953824334802925,0.5135701097169328,-0.268263277127783,0.6511650925035531,0.8922286150173693,0.059678668740216344,0.4682543427904403,0.4334480809679933,-0.9092722383035251,-0.34649194907264597,-0.811010250195596,0.0809729695308895,0.32550117180832566,-0.0033433231045259006,-0.47514776027273353,0.0971211369219965,0.021813506641913078,-0.2689844210210378,0.8661615693980349,-0.19067519141080203,-0.4162668672939732,-0.2044606616825507,-0.8875768129851646,0.15642038581777273,0.6793468805517159,-0.020906709775936328,0.24085787043535853,0.048208956653014966,0.22416649118009258,-0.8061891842472031,0.12547556237555593,-0.5023265724086294,0.7075659852331517,-0.91371604252608,0.28143104690683934,0.6661927727817365,0.1602513957589036,-0.49429289537473503,0.17176519776474042,0.5548665215314963,0.09816416017697234,0.747907478745967,-0.3673903066556862,0.47896896510861525,-0.3093585850814788,-0.8320695897261273,-0.007760949734932752,0.421315906947399,0.15692692041237463,-0.3038761675448832,-0.6091377080279493,-0.020019789834148927,-0.9873866439192428,-0.3825708305013521,-0.8678256411981121,0.20367199009505715,0.29186665890587726,-0.5340276382706453,-0.28970253056773454,-0.10848265487248414,-0.39848836357359996,-0.7290253718351803,0.9328770222258723,0.3342089793575726,-0.667533436044962,-0.2777573932477994,-0.38777683650068356,-0.8577832121169844,-0.3604109186916394,-0.6933016682004236,0.5782453980622784,-0.22720591120951278,0.14086998366111553,0.865047091279124,-0.4273585721532782,0.6073135088053115,-0.5928803085771035,-0.8797471678879457,-0.05626516557577008,0.4120689726948154,0.7289531797207939,-0.5587168926683471,0.8759237823637455,-0.24180108499343356,0.8533384940171526,0.42451281424800874,0.9650381360658894,0.3195676201751318,0.6542126366373008,-0.4426193968689475,0.03534742359306765,0.8900314338694129,1.0290482742616525,-0.1286335061448223,0.2668203425039292,0.9168725566625353,0.6072938298429549,-0.5837734933743514,0.3570049134213977,-0.40588365593924697,0.24800675916952597,-0.27400190223142745,0.45879302733876987,-0.8393253674513734],[0.6841946473628754,0.8503002535799428,0.2377769171944818,0.865308826567521,-0.28462098879338227,1.0577516315590452,-0.33793020453365563,-0.07839224711452109,0.33033108398213884,0.5277576780404969,0.5841862085251741,0.8642646010814992,0.8518071151422437,-0.09738620319700142,0.07708293057320516,-0.9065610307496669,-0.028159193995846585,-0.13059644402916226,-0.8466336788988801,-0.07094816434856344,-0.7025646452542164,-0.8584673350975894,0.8394913691334319,0.12841385090542815,-0.8775271948104154,0.41380528318374477,0.9764391981442269,-0.36848158858984636,0.3295421216642954,-0.7301872977558092,0.7236483954959491,-0.2193859770156276,-0.050127340627824285,-0.837244266207249,0.40246217338423784,0.3301120713241842,-0.4520350427471651,0.23132378316684896,0.11637923254235563,1.028711158458317,0.2280398144764998,-0.09023216827906394,0.18327615784749673,0.5758343399552871,-0.16905395507676627,-0.7172555602391761,0.7296600970813103,0.9786434043676626,-0.12449020757682915,-0.6261611538942843,-0.9190573628786467,-0.306837299890838,-0.9146648756207746,0.795356922767191,-0.4228174221271296,0.2903694401336634,-0.58946151688334,0.209039363222392,-0.18017835914933836,0.4376650721189804,0.2845969724158449,0.11577169246864201,-0.155221536608687,-0.8608743075424323,-0.49089805290093336,0.21615452663856927,0.605983328473947,-0.09371480192684108,0.7950681320443561,0.8541036570557041,-0.4283145140375962,0.9332870153831908,-0.42963381473981505,0.95326513854363,0.47911918420587524,0.6569005190869383,-0.6783993130488778,-0.9603017580533739,0.8961289295643831,-0.4603996794967521,0.4472899041798294,0.05832923180354563,-0.6339090712404923,-0.5889268576496206,-0.9713676239105544,0.05577796092965597,-0.00008277893300641005,-0.4985140990656183,-0.4508192113062863,0.35959970791517604,-0.5221362453858936,0.2846767923947109,-0.32185840230700224,0.14432567731066245,0.6345235841043316,-0.6463392754660405,-0.7951933849676913,-0.19522151639335653,0.6928486058080964,-0.6194322391578992,0.25779321000859895,0.14300756643264534,-0.417860260529306,-0.7517788644206921,0.2864520676664716,0.5286200459457081,0.8310196723711768,-0.8816186185515497,-0.7451110489189591,0.8050834928188323,0.8783834388925228,0.6682520020805863,0.24992672635267618,0.6478838372883889,-0.8317942142827192,-0.8848256965000709,0.7514914911206426,-0.726270147830361,-0.4126442801920802,-0.2631204585081466,-1.0563090702539077,-0.9486575112346809,0.06351478292355055,-0.17526981454898294,0.6868644009221571,0.31560989112546495,-0.92528950862176,0.6091447192907203,0.019681098030392582,0.8148176963581432,0.03967846220250412,0.25438532822170146,0.9965653868111707,-0.25697762428432797,0.13405364933116382,0.482920077238431,0.27320386007718417,-0.5489092115577846,0.7168192160513379,0.10476393268360239,0.14278088565996105,0.36683735405828904,0.42848124456949443,1.0329826273989573,0.9782305370435415,0.3964801544915368,0.6569308233649339,-0.0900881183924541,0.6654695366452706,0.39395166901564344,-0.6208845015980041,-0.8859662003028435,-0.7459340995772993,0.9213331105708312,-0.7854383035152336,0.33438250699239536,-0.6718903266313386,-0.03814148338749961,0.9733546306169779,0.4478623032971274,0.7250101766609213,-0.26379380268917435,0.8386213810929264,0.23104030950182852,0.9019752414814918,-0.24133945504035084,-0.5077386900022369,0.883787055294965,-0.13317829116228352,0.8403270216298989,-0.7359105500096281,-0.43341986891005074,1.0352757602240994,0.3372912996276837,0.747511659319059,-0.5883624358892141,0.37505336578203896,-0.7313378712282252,-0.6049292883221993,0.013854794211804728,0.6549320603375489,-0.5498925588235613,0.4903875708598085,-0.4457180456404826,0.6847022883997994,0.21159469643802487,0.4285459173524639,0.39732841597686014,-0.7962062780440992,0.8001638232851015,0.5821549651836592,0.23408494723147766,-0.3183687108542728,-0.06787044848714052,0.35428020572676394,-0.814992777833935,-0.6307174655576641,0.031491895169373695,0.24748432498503278,-0.37230736004155807,0.06715844401573212,0.359605053488358,0.6159279901400488,-0.2757754792202219,-0.34191295558493623,0.2377025193777902,-0.06822673278603819,0.47291227600631286,-0.5449524981948072,-0.5947490758990163,-0.14168962384459527,-0.2657825634753243,-0.3740265780990592,0.6309194449902428,-0.5990496523329134,-0.08263573056421723,-0.42194472026348395,0.673186576602266,-0.8674037533204566,-0.8446917457162865,0.19686552366506205,-0.9195518861961524,-1.0111230059745004,0.5568794812335546,-0.31030208079816096,-0.2594763267010896,0.7754786804537376,0.7429214981711932,0.7220967377080215,0.19291317473526903,0.29512282788512384,0.6760058033219781,-0.14782386443651707,0.674547949527237,-0.4464935916930662,-0.9132362336328713,-0.4685773282407535,0.18302687322756375,0.2751207966242333,0.5076117813035035,0.7615681957739368,-0.47054350656309135,-0.7713263078375598,-0.24933510726329,0.11095179787876719,-0.39224998119424875,-0.6541122369082996,-0.5963341972514027,-0.7997824808560082,-0.6018805772679677,-0.3954174377732755,0.28039584272182444,0.7689306258441383,-0.8884731387340602,1.004960861735362,-0.1993695089153806,-0.042033220344168586,0.5500522145690937,-0.9071420530873998,-0.019941773724962718,0.30220650455836073,-0.8253613394715589,-0.31886220079890276,-0.8991885305271917,0.7644212246522865,0.29283294716920366,-0.5386056384999934,0.2842144664441068,0.7635688543258806,-0.5224580865276681,1.0402818027122094,-0.5146884227247434,0.6249172289304582,-0.3786933207500322,-0.06951708676768231,0.4415449950831225,-0.8911094149791922,-0.030186082329761107,-0.2584984810462889,-0.6234924069538808,-0.5449885757787071,-0.9037065160947744,-0.7802711362061888,-0.13849668713857108,-0.10291833439822162,-0.6745040359284988,-0.7998194917842083,0.46446135780418246,-0.13534398492504643,-0.5169824131468054,-0.30708218008527893,-0.847657620106385,-0.508716464106742,-0.7941653304573196,0.662392909134152,-0.27396584353929765,-0.8689427508654374,0.542545481195034,0.014955619451050879,-0.42868054756445306,0.18484874141416374,0.010406477701655304,0.49643008663945165,-0.9229789965082948,-0.611681739796531,0.4939102427050443,-0.582545994350716,-0.3643819515463702,-0.4078967302948899,0.6883955653547806,0.11252307345443695,-0.07631624793851027,-0.3504119642367392,-0.9322767744179841,-0.0003871555652012942,0.5807271391400736,-0.1618329901586226,-0.394027592304092,0.527545112402835,0.1840682815165274,0.536600407378358,0.3912565003693726,0.17638835446840873,0.5230479306565273,-0.28663708731243526,-0.6694099055548922,-0.4171072108661162,0.14798594641203822,-0.7074141975454145,0.7808663518042699,-0.8388217656894441,-0.07858329344575161,0.6485859833168831,-0.2553085477293383,-0.5287650445314179,-0.49598555338165945,0.9269987717539339,-1.0073711873629458,-1.003143027872168,0.9191620090160855,0.23965430963677736,-0.736572876593917,0.8258813454807344,0.13486927371026539,-0.5355401658751391,-0.5669705836934563,0.7548348258248047,0.844322118491264,0.8544116198264121,-0.300578277778157,0.5072568316077369,-0.03771271460510653,-0.6740018714973618,-0.7600898751731594,0.15825114550388622,0.5962337863127634,-0.7192257408035383,0.45298043733683324,0.27843504470979974,0.35416130314330657,1.0422103171139623,-0.2542723310030644,-0.8841109406276731,-0.16510102272816884,-0.9358046135538838,-0.8670727692677432,-0.9139365604047898,0.9196923552920847,0.523155516262241,-0.3030404080658781,-0.5810955245236665,-0.8128599729859238,-0.1628464121857482,0.25024868649500825,-0.40466937383296886,0.5748523764185507,-0.8396217103031047,-0.8707199959048737,0.5989283963171205,0.9484907036484801,-0.3300166838258363,0.5867579019586794,0.30210050778758374,-0.014110369281704966,-0.17934379542289924,-0.22702023058396614,-0.1943391468297997,-0.2451633297340734,-0.12081293450036074,-0.13575118823259347,-0.011887170094010033,-0.9163393096649637,0.7551767792038108,-0.42671278407052826,-0.12007823151727309,-0.05218851175822175,0.10020196754378763,-0.9260657675436773,-0.05660667119504186,-0.7432700984276985,-0.2162286459038273],[0.9210146582245954,-0.9304612202081383,-0.4093922512123328,-0.1891852740145707,0.11095991968482122,0.2603432009053387,-0.3004088926417826,0.4101640745715711,0.9973134384176803,-0.9250145401886694,-0.3466736939846704,-0.8875647254576495,0.1382732093940875,-0.5899931052762467,0.4528469343505028,-0.5105589580953322,0.3301542582839825,-0.32029483760209204,-0.9219836537924379,-0.11384612239604502,0.871874071987858,0.9284723698955519,-0.028460167712161255,-0.36565721185771516,0.5808920622298368,-0.041395676530505,0.6498963642593855,0.8277820892908409,0.612190374995769,-0.3821946386646301,0.41545230882313466,-0.24782949546668936,0.4243698021909753,0.6417716656249052,0.8620261175411353,-0.3529049076498476,0.9342889589729589,-0.22435852033363413,-0.8180285761351276,-0.339413808279804,-0.11334468366043997,-0.6981932261569723,-0.05346110746575761,-0.9804148692481793,0.20155339868591993,-0.660265980990949,0.7384473005548371,-0.7883546293597536,-0.5996575274306979,0.8772788048261086,0.7050538863664317,-0.6748037829336744,0.4014519995473039,-0.5611231889300492,-0.19276091173237725,-0.21138250519625496,0.15869711473206732,-0.6452058950256285,-0.00199127661335863,0.8027993264344075,0.1965453160269532,0.8747612428743676,0.2074812477078345,-0.9170860713306781,-0.73152008325715,0.9105506991393169,-0.5958966421780465,-0.006077003829953024,0.7603523211571415,0.29979754164723005,0.1200732015775458,0.6407029569305891,0.6882567900056835,-0.9319824067429628,-0.3945222562108832,0.7070643037424591,-0.7499286645633726,0.2555218408117431,-0.595381261322865,-0.5282330628694678,-0.179459335335091,0.5489350719382176,0.9881034758845698,0.5291350772883996,0.8595838517206871,-0.6459781398017856,-0.33889637952025486,0.47621327574356775,0.3617326986175843,-0.6948684275483783,0.12695264163357306,0.756168206384513,-0.371384439737359,-0.048941447276686326,-0.9521652456297803,0.8554948786469041,-0.017499896795351653,-0.9556161648782469,0.6261411812632054,0.3596594367182955,0.859176166648772,0.5256750509402962,-0.2693832884576557,0.22968230995971498,0.6240192553565007,0.1689417919329505,-0.6646242893613037,0.19930480066313766,-0.9474555666383956,-0.2482852273332312,0.4621120794398358,-0.7890285840622424,-0.9995904707147681,0.699252290539019,0.6429976915419839,0.7119407230537932,0.48036646164170627,0.5494282679929405,0.23714947683328502,0.004129588827230816,-0.9399267104637598,0.24755036972767952,0.22842209185355342,-0.8886413941230455,0.8952398812943256,0.11117538421228089,0.5275358794156423,0.7083401529699308,-0.8725589782475623,-0.2711825953950296,0.4132879592118207,0.2701325631469614,-0.600198096448658,-0.23886003105284825,-0.5224683347384085,-0.724076692225931,0.13472185935781378,-0.07216673340679113,0.6153393454795364,0.7836151592899978,-0.024559809502929696,-0.9321734519289648,0.17386938772686028,-0.7528954883170155,-0.7749995594757036,0.9435037814871515,0.46435246527940427,0.4916798396060097,0.02974600694711906,-0.6025643763765783,0.8657579412514217,0.1642113617636502,-0.14023516211518477,0.09012249601761296,-0.6371009339689775,0.6094893285165319,0.15981287056012267,0.6597611955238787,0.6052014677608766,0.9658562728516389,0.6103715973427822,0.40995304504791535,0.3332015663548175,-0.6092094736920318,-0.7326113047522999,0.3832717860288211,0.8770639071065661,0.33048119723028396,-0.3745151533487466,0.691068068083836,0.6218742026447458,-0.15465271387953944,-0.347265785982758,0.6728033745441305,-0.2711193804317915,-0.9273750588410784,0.09151653420664413,0.23177467312273986,-0.04818680000263727,-0.0920035749307812,0.6489879642860114,0.0893690170853161,-0.290408955575894,0.2081949962900726,-0.6312600449760586,-0.291873425394043,-0.264844227530669,-0.03482386527343087,-0.23690099249918092,0.8464575923441456,0.10267531374487925,0.7087783867645489,-0.5384120944877736,0.17092800877958542,0.09503438352592218,-0.7159872079188396,0.9864896672025008,-0.7462362488834585,-0.7819755373855178,0.5920926164202651,0.6774714920321466,-0.6435484653910423,0.3906591439944994,0.6073509856613114,0.06731519199413993,-0.1346977338422254,-0.8552944061263292,-0.6564516285044378,0.11499074361194747,0.8081526938680993,-0.3375489620020286,0.9271710149835847,0.7742497321904779,0.13529225070002412,0.10646980387133496,-0.3871573808121136,-1.0011382899128427,-0.7524956269453107,0.6950970847039946,-0.16460894096879647,0.019950306910150605,-0.11868355201728806,-0.43244660587757616,0.820925125668234,-0.5314018788673266,0.15819563200718728,0.44492017177858273,0.6879815058787085,-0.9295193170065718,-0.4683906570942135,0.35116522430784564,-0.35950778658559474,0.9689068896666545,0.32750345481554916,0.395688555445084,0.054969666466442316,0.7380594491475516,-0.11136234927001336,0.007683198031134648,-0.9458048116197746,-0.06365891393769242,-0.884472580231167,0.0553251892397013,0.506924878461936,-0.9795017607933726,0.22921721936178158,0.7735854953070583,-0.5651647371969802,0.21613775488681147,0.5776399711377721,-0.6198681843511814,-0.8184651626689285,-0.6500568928227605,0.5157010002481098,-0.872090005867482,0.3100287835193659,-0.14810085160619008,0.4379748208524054,-0.1372146036418882,-0.4780169881581957,0.4065793860339194,-0.8736340362615908,0.37039902485999215,0.26444776562640476,-0.4532485561060706,0.9612096624569154,-0.9629979517590078,0.9360664880528397,0.8952378053435622,-0.8366403811643421,0.44177126694623375,0.462160419253082,-0.6209693263876693,-0.11432496172481892,0.9229820938136449,-0.57463923495624,0.32417327402777885,0.00745204177981284,0.793913880103736,-0.3839392601599436,-0.19393033349455097,0.5709950534621424,-0.587405360527926,-0.2909669593284196,-0.9754273029520063,0.6939296543540052,0.7955782435206185,-0.4587203863657088,-0.114364582087221,0.7747218528039198,-0.23328727953521933,0.19216948911464432,0.9444462806483794,-0.6459965924214383,-0.5450461671547232,-0.691559785540972,0.0895072170124029,-0.13224974131156791,0.6389267124527858,-0.26745950583846,0.37909208135480826,0.8826321954872485,-0.23241452066537205,-0.757063344508569,-0.5356237117729569,0.8242947411503511,-0.04544502253431264,0.060023785574331336,0.284266640392739,-0.7624580968758424,-0.9077606856736234,0.6630001779441661,-0.5310993861966891,-0.017662627955977832,-0.4660036008199202,-0.2461908988125618,0.9001499737082234,-0.15289984952155417,0.5736475536552196,0.3703179461367152,-0.6610427651568527,-0.5643534425655939,0.5488947653098075,0.8988658881541918,-0.06474751183458134,-0.8423165928456864,-0.5591040959483484,-0.08307963619049447,0.9105133842487951,-0.9581915932954173,-0.9810408198474618,-0.7480570083523308,0.8158288831777323,-0.23109954596840937,-0.14234724038132604,-0.03938199056893533,0.10657919916531915,0.5068514404844517,0.8911022814703865,0.1311172408280049,-0.9129178887867613,0.2023778641075999,-0.4819833881056581,0.5161321812162336,0.3802221114995087,-0.18427933879313246,0.29736136890697273,-0.94112201216262,0.22215075804686354,-0.7719296014473024,0.17876881357240124,0.7427666437097729,-0.9296398007339105,0.697006338391907,0.15607174635099616,0.32707035507014726,0.853260474089849,0.918627549817297,-0.4079207320887061,-0.4584578032374002,0.6747664795187119,-0.32324197227565693,-0.3861159320653557,-0.9695646365049458,0.7488734775694657,-0.9041714958722575,-0.26560372015375433,-0.15763149785694303,0.7558354281280255,-0.8165571099980548,0.8913755123203633,-0.6701818380600292,0.793588497257163,0.684629746937652,-0.6624880300520559,-0.4840463684283073,0.4138956167711859,-0.8892714449619691,0.14588407715096013,0.6143335352602964,-0.07254071790344187,-0.5551751804132462,-0.8925890394368263,0.672398413460593,-0.4523336673670996,0.0336202758354917,0.41251128856498565,-0.8485679295931572,0.26069816435218185,0.9796589271742673,0.17914637933626326,-0.6311260453635195,-0.6471947124551332,0.3775308741046789,0.37147326027515837,-0.051290228040245446,0.6136427396521965,0.07099135351971694,0.7344738111255175,-0.598667431303992,0.0042874964641996],[-0.696369259710948,0.0892824354178561,-0.5638551352325987,-0.4522626515127732,0.05761500386501616,0.8973951704385634,0.9062334762256277,0.9609904302612322,0.8113780810483797,0.5417060088655548,-0.21605847886374527,-0.3537119172171132,-0.6207484899912801,-0.5462269066184312,0.5100140435627036,0.057846588749172395,-0.08835042204024468,-0.4783165973618073,0.04747810951975147,0.8448363865232024,0.9382927727534548,-0.033101153735327744,0.5303101410134825,0.3269286815720203,0.04519355252376266,-0.6439152228416467,-0.4875560075629533,0.6674631351442151,-0.2919002629486827,-0.6981038725920242,-0.7233752026602901,0.6722346095853012,0.2841921390203076,0.06294882626127374,-0.5463402123510717,0.638345055103877,0.895826199480465,-0.812120377496909,0.503818111010405,0.836193804787322,-0.2963434440768827,-0.7861013172521856,-0.12600155364678206,-0.8494108441264834,-0.8095328764239289,0.4642672520401969,0.3272084790741039,-0.6298300006096498,0.9110951127572791,-0.7050619628504173,0.5151234701272063,0.18455839790665654,0.9833273640067597,0.2202601332014518,0.03525551371597423,0.7652092594285776,0.601567498657544,-0.5705110986391155,-0.20088566535394167,-0.07765674916147274,0.5551374414901724,-0.204167685095288,-0.2781750463102574,0.8315320153992829,0.471770846287975,-0.5744725192508093,0.33877405567552404,0.034250990129826804,-0.8435984644771208,-0.9126670489946886,0.44153156440292296,0.9841611325395099,-0.10764049967809888,-0.9493060692195142,0.798869287541996,0.5998389876246086,0.5050584701811786,-0.557348803999985,-0.2815560259655782,0.22623753910447744,-0.4520563184001933,0.908680309698723,0.7015914138235572,-0.3012027515619928,-0.8191179602626875,0.5427389620774985,0.15515625518780246,-0.09832817329723154,-0.070534633331332,0.213691694147026,-0.931795719617757,0.04420650173329756,-0.5846857608940657,0.6766460046706829,-0.018755477179727663,-0.5339514679395443,-0.42662785318843033,0.6019108688122276,0.6031865422330452,0.34178241281245164,-0.21184812996768823,-0.34569637738048087,-0.03718828287595976,0.6855725473661722,-0.42964894339708687,-0.5352125717416031,-0.6415120545695122,-0.41847620006284214,0.8841807965909702,0.32117552484566014,-0.4508376474020064,-0.4807395743637417,0.6195703661226849,-0.2837349888133486,-0.2476449236928086,-0.44988381824108814,-0.1036118097124247,0.8312369006786883,0.8327167186896604,0.42585610503840876,-0.1337663280728315,-0.5148665608655063,0.016228937845437986,0.7392046644662613,0.5641360482986203,0.004507606876569563,0.471372693751991,-0.5614195952806484,-0.6728896542180859,-0.8013229999187576,0.24094440266503186,0.15244471283750155,-0.3762860795449553,-0.5334376149738488,0.19887599549741758,0.4732366187701166,0.515544424732273,0.678935335768995,-0.1491667543666489,-0.52355881135688,-0.5314212898827531,-0.8792914481438723,0.46452479431563204,0.48891301820718425,-0.6718693708003775,-0.9224644528379377,-0.8613845835301682,-0.7965523029989927,-0.5887941855303789,0.4025430980043917,-0.8424248687164079,-0.5817645550202707,-0.2805072582779783,0.4945129417843407,0.15958466101377305,-0.7361418284008266,0.03442828176274572,-0.9325128158383772,-0.9169515624464747,0.7719768699225943,-0.4844319493319029,-0.9141537267330825,-0.7501821274670287,-0.49945751960434637,0.25081378304178636,-0.6515800760573777,0.15623577349473639,-0.6201164545161167,0.8799604659367609,-0.13742313276573537,0.702485778058355,-0.25076423136993964,0.2509483161520615,0.3969332001455813,0.5087652981861804,-0.293939254888394,-0.3009153854390204,-0.2909869579599352,-0.786613231853785,0.6639375710533836,-0.13206817832450568,-0.6709987496358575,-0.8226967092472929,0.21748345868740637,-0.6270537981220866,0.6078749598707119,-0.9236914272087138,0.9865778390491967,-0.1832868537288288,0.5984305096737929,-0.7260472074865155,-0.8967380509957864,0.04595778461423945,0.2669975024392096,-0.6346872316471387,-0.16062305788559056,-0.0535752517972594,0.843945887770609,-0.054960156257480644,0.7276935442831466,-0.21059468273992754,0.07313313876280333,-0.9762092694108863,0.12600455052680015,-0.9967729851757886,0.4833400382019363,-0.2215651611473426,0.029929522002794452,0.6936169201009156,-0.6859038613821905,-0.0015078266968647368,-0.6121148978892054,-0.19201607947274602,-0.39103340094337946,-0.4882452893105258,0.587776645954072,-0.9697925775586503,-0.0749596127900867,-0.5925966022412785,-0.5593462979812079,-0.3530044553663908,-0.31049070730639394,-0.519079075907375,-0.5808751135098835,-0.8551994069224951,-0.4204157364002842,0.024369865942706993,0.25197269711362635,-0.17876972147438552,-0.4505996898924898,-0.8306040094814221,0.5214572221878971,0.3210875041555431,-0.4990352226073681,-0.7775008966921372,-0.3517568968375321,0.16433347649512392,-0.15176779957573985,-0.8412297589771583,-0.5192043584224332,0.6145164067051724,-0.19746416541165934,0.7976623235295611,0.07723204730839188,0.9470979271475385,-0.6583594009647024,0.22059725843543054,-0.18580962243735344,-0.618249476968289,-0.8483756122543511,-0.6561378637856697,0.9538355880523312,-0.33432538356562025,-0.3437617759900178,-0.4924785330845419,0.5496742848482655,-0.7472827144391018,0.359039061125061,-0.1860378646725694,-0.4096922713080682,-0.9320586435220692,-0.23149038625778628,-0.6619233141674695,-0.27944743380096304,0.34747307098550845,0.17675486091653392,-0.4106654099716084,-0.15521297143960044,-0.18245135226252374,0.15367331597202227,-0.9972788511222407,-0.6883493111552834,0.4081582752955454,0.28678209598589255,-0.16113688389820624,0.7500603937641764,0.6819291501879096,-0.28733793741957936,0.5997670294504837,0.9883661384889014,-0.4196423137315959,0.5325573435430786,0.7812406611526231,-0.9710733212015603,0.037021453134450974,-0.16309767949098603,0.28485995198648784,0.04460859996248796,0.03495823427133267,-0.5702124868857293,-0.6295043861143218,0.39072832924476286,-0.5048316334702582,0.4286204496021674,-0.6605991529432212,0.8462110156396283,-0.535349374619885,-0.18764343725651733,-0.0045338915223794235,0.47426887386407846,0.7258387165564747,-0.4222904255495347,0.29851655626084944,-0.6895280506900785,0.2878391076979562,-0.37003379258795965,-0.09198643472330532,0.9685720961318938,-0.6420353203601741,0.11451142243378223,0.8009017357266952,-0.31647443625301996,-0.81766476864386,0.9137306587607767,-0.7227875817160572,0.6364825763210107,0.6236960391485601,-0.5877957445560461,0.4756679437877574,0.03745193207544742,-0.976066648266027,0.6338021093863019,0.7896449040767164,0.07889745517605636,-0.5886033618774134,-0.022854283782377006,0.27002157334773835,-0.7279568590146712,-0.01713670294667714,0.7021580503056941,-0.6645019151702658,0.9210596338064581,-0.539125508263528,0.27424756453471727,-0.06595669326823946,0.46163771977701484,0.25581113707342445,-0.24733446088132158,-0.1639084860157287,-0.8895492922277659,0.5223192834144782,-0.5571385286799946,0.23259210628627525,-0.6162893968214573,0.5889602086231058,-0.3345656097840412,0.015822327013105847,0.8563840413485855,-0.23660873068346025,0.7631583433444766,-0.321353001995376,-0.3270568829971192,-0.29818918760062363,-0.9493810621863754,-0.05080735465143445,-0.8904356666298715,-0.4246820678532392,0.3558561439582946,-0.5869595168881308,-0.7441846207715247,0.27510757588334667,-0.45050862166425076,-0.6159587521423004,0.7385080836007446,-0.36136133267935583,-0.6295987902159579,0.2764767198449259,-0.6193433143003546,0.7855842520778269,-0.024841910273652096,0.8802949255402412,-0.0025463102578198392,0.229841681400324,-0.8708296368132604,0.29032576519392134,-0.3353574723347917,0.31820943734174995,0.426235583520025,0.12805893819978142,-0.9581713841012387,0.3209411026559158,0.9673424209004439,-0.5767712577971459,0.7914796334153557,0.4849649185042576,-0.4834279575158098,-0.645516939474461,0.8309541784453818,0.24581234706798388,-0.8844250381864371,-0.7892568155956403,-0.4483904331291499,-0.8282218489170281,0.8419470474503852,0.2587696874319652,-0.12655078247958157,-0.14758278099221178,0.28345173098731047,0.47686184109151875,-0.34693296876569835,0.544381116947999],[-0.4170880197495975,-0.8430444903289276,0.46629358727382386,0.32051786531549087,-0.8341447732611826,-0.9059180458517837,0.5053756071962923,-0.18606121421790187,0.09470543536557721,-0.2821648938000455,0.6877200351014489,-0.40726869417289346,-0.21651742785545455,0.20705478599981378,0.24425842524965166,-0.8768259188228453,-0.7728883308447975,0.8235747345134603,0.24569712233077784,0.28170695603326323,-0.00416272395516336,0.37321396259190653,-0.6231060293908859,-0.9363897476741866,0.5049324906167325,-0.5354886742155943,-1.0090505562155507,-0.21854009949043848,-0.17306621314919998,-0.49232747747727645,0.2128312316616476,0.18848420380211192,-0.8250923141308442,-0.8723175532079152,-0.24699184749432931,0.8235177296754984,0.8631160214281907,-0.7108631614187276,-0.544471058830741,0.7473615560898896,-0.09326071309644372,-0.4275545291178283,-0.46194814651917804,0.7071966893032862,0.2554214848724252,-0.7164654067743798,0.5743233794205724,0.7114165958168619,-0.8439651572820073,-0.2989218136379086,0.4141708926224076,0.40908991634834846,0.2741049016878382,0.5164768224602851,0.7265268377480052,0.5694279380988356,-0.4737062970284066,0.9296280920199468,0.5638195980113908,-0.9137224539593165,-0.9014489157091059,-0.5778611874320434,0.662204980932437,-0.08369234761994672,0.596586176395947,-0.2762403751846283,-0.4796765007424171,-0.7618082986378705,-0.7607117517831266,-0.5811179499504463,-0.12218390151070625,0.7362621848139973,-0.3031906351758137,-0.06029149638235803,-0.8412866445297688,-0.4604320885754285,0.4372000978399042,0.8341833755768766,0.6359199020998384,-0.07529867132459073,-0.9092131603549709,0.6884638977661658,1.0346092943622849,-0.7895556378455668,0.4526900403072155,0.46521369013383207,-0.867067499506144,1.028786762115828,-0.23234669898800472,-0.022199524377211764,-0.8702558906417813,-0.7353563844415055,0.2413438370867527,0.5498283165030644,-0.7730223023827912,0.15740066812785383,0.3087824882567116,-0.5041567919892952,0.3501859372838789,0.6820846273333246,0.18321366328123742,0.6924533362071221,0.06579101637331966,0.189029314580586,-0.9177266217430136,0.9302313868305381,-0.8446888613513147,0.4408933479937376,0.4323342847096021,0.3407958248896865,1.0114813511891676,0.46376167628874376,-0.2970487504750068,-0.8850148877784191,-0.9366131361057775,0.14438041406563423,0.5852388842192578,-0.2142976959208146,-0.8219046333555124,0.32334751290776076,0.16421939172800498,-0.9195605592667916,0.2196076666326788,0.5527798364714378,-0.9387136391536786,-0.03301508598594987,-0.08504252048921514,0.07013478431089212,-0.8768510921320901,-0.7592548725703212,0.00006191149771769568,0.05962000175955702,0.013272832660421225,-0.2927949775420823,-0.5919328829959749,-0.23230622918151508,0.549438460712099,-0.05714181901709777,0.3085097386466653,0.6527144827657569,0.8068317364478776,-0.7144304779857451,0.5348692841260981,-0.8503383043318474,-0.5138210702938776,0.34565366236005146,-0.9869695646296814,-0.7603625719591391,0.16962706555696255,-0.9357755934289258,-0.6129430440729238,0.2324101183136545,-0.3354711403925853,-0.22022415944260929,1.034149710766697,0.2325341434322146,-0.19537325209440523,-0.14603814343848914,-0.07120244356795119,-0.8523883325063627,-0.6126544037825984,-0.6916350059189689,-0.6855827803237496,0.9297110107386277,0.008500018453263121,0.07517638428179982,-0.012280702837529777,-0.5683444940443784,-0.5333535887434837,-0.4674297271959117,0.0628638778750876,-0.8197655810199476,-0.4599980143690683,-0.6948862897978846,0.5070271301037429,-0.7733138873073523,0.6424959206992986,-0.6299714050785746,-0.46065409943503566,-0.7472130878714998,-0.10076473703906086,-0.4213899674672552,0.9618050765448821,0.8011990960578723,0.7684582217763669,-0.18724963676131662,-0.30640233974795783,0.7154539041390293,0.26742937332981587,-0.06856545842390029,-0.5191478268765098,-0.5784675140888458,-0.8528398109277839,-0.13370495933011456,0.7408731516482026,-0.6920017721682894,-0.17000410182662604,0.3796966212888312,-0.3810841114547495,0.6151052888875028,0.9815470295622695,0.36576943873659906,0.4564377750151368,0.6270938121868206,-0.1662325723126759,-0.7499045717462334,0.19869535279306488,-0.4882839855670613,0.6527554473242885,0.261202333089364,0.8545059633327472,-1.0311292297715575,0.38957770678424875,-0.6351232064011201,0.004995079352299049,0.9646011304497322,-0.5879137518350028,0.350927303517505,0.35566740320189183,-0.7292492990897823,-0.687616048018517,-0.1400164288041112,0.6292752150666194,0.23380745180230791,0.710084781158189,0.8562511835758853,-0.1517187226589201,0.037262625118258,-0.9335724813562941,-0.3564157289862263,0.41925892765327366,-0.42707489646902874,0.7485764603380389,-0.822020594502392,0.05316587692665969,-0.9201858240524564,-0.045552016935006705,-0.9181590924149413,-0.4785084870506109,0.40442816604607024,-0.8001623389666774,-0.3475182160675343,0.8150997641229438,0.22429163923448678,-0.30554440347670986,0.9263890599917037,0.954781766600499,-0.1606593441035155,-0.8469926156950749,0.5378496865376872,0.2795509537934959,0.46734620648979297,-0.3906000797191439,-0.701237241158374,-0.704425806489035,-0.8739469179620558,0.039723800104471144,0.7407890604655472,-0.7011414748493626,0.012262412265177101,-0.7581123816205511,0.9199919482484704,0.8515184100682336,0.020306195239055976,0.0100799006233306,-0.27468480969344056,-0.22529337046790315,0.6300810330350872,0.5352670647151774,0.07623408493742587,-0.09034600684825268,0.0396158177557429,-0.15582352160422513,0.6171611496942864,-0.6866447754919952,0.6319895335288404,-0.1593585422532989,-0.7713684040916966,-0.01332838182208262,0.5562997016845801,-0.38698522926784096,-0.3052285674887246,-0.6987169463476247,-0.7912392916272974,0.3895647571337666,-0.9116852770575804,0.7549826149631573,0.15269353670877797,0.824520296760123,-0.07411347290381078,-0.995545046435174,-0.21156573627767056,-0.5631386094648769,0.8975073371881592,-0.6189550366981155,0.668951298797449,-0.7898198332506332,-0.37247480379758446,-0.12017330417944887,0.6678253544658743,0.762911120738891,0.2932093284323455,0.08104385122862806,-0.1068736998361134,-0.12994241548421653,0.5950769371632285,-0.006025550794977179,0.48545190750482614,-0.21369004720881757,0.5486690747860059,-0.1405318565222199,-0.07968301503823073,-0.8941496252474601,0.5666287208820234,-0.4650080984855436,0.937593270065842,-0.6652547542463365,0.7746827837408459,0.9031208671122636,-0.7093957016288197,-0.5362329899230649,-0.2936246047916319,0.5977110594931647,0.24542702961041102,0.32021114684104723,-0.22163184268009933,-0.5391113877974799,-0.7102022295284796,-0.33598018393252027,-0.6561386924389431,0.5721297743598774,-0.3530781282921468,0.636265218725593,-0.3842735864718123,-0.1721559171321874,0.9394969599465943,-0.8427320371909562,-0.3293382759247705,0.26910438011219595,-0.09150359298750804,0.3586779618902547,0.6341351320176987,0.856266030289168,-0.44322907173434767,-0.412885130671789,0.17326999234816945,0.48646295045739574,-0.6424023559511364,-0.9175061110031061,0.004722817398777505,-0.7590762938718133,0.7920677894042011,0.14194939740056867,-0.6271528655136125,-0.9001030205440851,0.35899194787401467,-0.7101206389416089,0.7927853529073098,-0.8936830454153899,0.5490557073089053,0.10998194585835863,-0.046875365869457786,0.9338419189049065,-0.8811519587163856,-0.7306709421386778,-0.06504228824135053,-0.9348105879359437,-0.6873829842229773,0.48561946622045615,0.8879349277021024,0.8252666924041804,0.7772155625781884,-0.0830672590296355,0.4849394030630727,0.4942533576512209,0.850227751227952,-0.1866252974387451,-0.24665155530366195,0.10302189728055433,0.4740865330922207,-0.1287281923007084,-0.9399918086594192,-1.0385063990299623,-0.3578888590070013,0.598765192197739,-0.7114944867853449,-0.09567509413220558,-0.6862039137709126,0.32170219624641205,-0.19703271655079588,0.15887313438661246,0.786194697246664,0.3998804564305102,0.07263652858649082,-0.18100811518632784,-0.2601022137712147,0.7485719267942128,-0.9136094958515109,-0.9868300341515795,-0.8178177508298748,0.4356748198838811],[0.030907339432967376,0.2555513650830663,-0.2220293488412276,0.938851675043613,-0.32484179351490156,0.4305731364809386,0.4151630525297773,-0.27432708426010455,-0.311754413600553,-0.04113517993598147,-0.19537085659254025,-0.5560713118227298,-0.22884444791264322,0.9135807357518498,0.7833800284936113,0.16095644413183455,-0.11313339302253898,-0.7777518948834626,-0.3093924433438312,-0.1799973390404339,-0.17421479903831538,-0.8929947996407709,0.32444526794960343,0.6523904185360861,0.039374391167739144,0.3607341819539495,-0.3423780287415864,0.6474180353229514,0.15794010385550286,0.010650136474555077,0.52026661037864,0.1838663237832216,0.5728180107557286,0.06398956624333009,-0.20176522567591834,-0.8880904235822529,-0.4572401841982936,-0.5909335364021132,0.5572947678194945,-0.2772348685072873,0.1274628857657848,0.7094771206460172,0.9234439479854694,-0.6484184375333967,0.033374700707367935,0.9871207322980237,-0.7015605256179375,1.0132249459121925,-0.2911700757681454,-0.6151776729916488,-0.051320334250967756,0.5410770790146572,0.7027334760521372,-0.05033160890699721,-0.9530478673811332,-0.8430307687792362,0.7342018087772593,0.4912275548336107,0.36263845942257267,-0.7084139356811208,-0.1703229704751149,0.19672519848380132,0.8522392749688347,0.30298523662932025,-0.1966971720587909,0.00007136245237183433,-0.4250113572111049,-0.36670428185945164,0.5377692688487127,-0.28540453986335923,0.8633634868773437,-0.7278673836685469,-0.184358277383942,-0.8273742490325403,-0.40056093240642754,0.697530907081825,0.15732611548060532,0.6701617024978748,-0.5017199760604989,0.41918982379912667,0.41538921243526555,-0.04595067955443594,-0.42303421479219994,0.6344727098559838,0.44377875545021267,0.011294891706021491,-0.3966126118000652,0.7330624250435022,-0.5708718633834364,-0.6239563458079441,-0.7407277557812976,0.6225422061830856,0.3455390874346733,0.8851440461715954,-0.9507350311137439,0.5936339387830578,0.11272093831635513,-0.6366724509458116,-0.7111902741081892,0.3892370145560098,0.9235563714506341,0.11825815734920528,-0.7027786322047681,0.6342261221856514,0.28868024437918055,0.9707729390696398,0.6976048218584994,0.36667497464109333,0.25303514202903,0.35777465512506534,0.21793479433503765,-0.6208557481694384,-0.7648877223269898,-0.0010070560635101135,-0.08184233307907082,0.01541592777858398,0.44569710628653036,-0.879367880739747,0.8801913915302637,0.12823204034941876,0.799513166454751,0.1713434849808798,0.7575901194145079,0.008849060455606404,0.7135811677111805,-0.6086933671951731,0.997986825126495,0.9056979888875334,-0.8913787419466025,-0.858066595145767,0.3424813153418702,-0.6512389404134735,-0.419363823638766,-0.10882730711258645,0.5419939079595477,0.34412172765440796,-0.07886700065789429,0.19786842205035868,-0.9393668948906962,-0.4241967491906615,0.0067025437868230625,-0.6579279859149398,0.7281544424484779,0.9440923523085618,0.0232376532707413,0.20809095533799404,-0.17517278194276031,-0.14519291087782638,0.21435206369811854,0.807568598702594,0.7204678754872325,-0.3597451921140383,-0.4641009053429652,0.524642672291084,-0.9474666019507199,-0.12450029257024661,-0.9494001248109246,-0.27591456438292666,0.8170521207974115,-0.8866629922239746,0.944108783413844,0.5112312513171597,0.42704058391315414,0.27008521393692964,-0.23871270800717204,0.24122543530073692,-0.07924084784592164,-0.9567846428284102,0.9389110608665527,0.2561406576942409,0.31858977269795297,0.012663941404158005,-0.7880471178664168,0.1469293113136153,-0.8773183462798044,-0.2384841344528325,0.8556032753103933,-0.24114179327419138,0.056439169233643,-0.29092779942420965,0.4609763760419363,-0.12309753716020469,-0.6473439237420882,-0.8830161933998326,-0.7837131259100854,-0.12220736594561618,-0.507442867068662,-0.6489554349129132,-0.8835728801256147,0.32823501587264525,-0.5117171379853918,-0.2865481352193089,-0.6368937357826365,1.0205728179714002,0.78165078488875,0.5228792723831226,0.8601444414600214,-0.11734072074346343,-0.7638900694565768,0.48186204090702667,0.46910791137776564,0.1281428508928989,-0.15674605222491256,-0.8859937343822367,-0.7204451972217132,-0.8496699167054237,0.43995548947840946,-0.8743684161351643,0.7311080639297995,-0.9012738967623443,0.542506120697948,0.11014518712066859,-0.02837934725544371,-0.44435925624024464,0.058538291614704835,0.38049684309887,-0.6192742869370792,0.8160839887046897,-0.7575958174520163,0.5371110899947216,0.29755526897891826,0.09869985330830042,-0.5611616699842403,0.6431685717417739,-0.5831717272308694,0.6837358435574357,0.12491600853853782,-0.16024757568714176,-0.2256801544855621,0.9639421190800546,0.7188162711613004,-0.8788658832486825,0.20849821560276716,0.8421513606000632,-0.13165746828433345,-0.26757095423799193,0.5880484593656168,-0.8264778616652749,-0.7090615502911362,-0.5088565468646281,-0.7889134636297808,0.6822556121099712,0.6591856685647415,-0.9070365260043263,0.40164317747935785,0.3398677851129217,-0.4914608415982872,-0.46978026404294404,0.45897332758706044,-0.43188778234236835,-0.5339897918870606,0.8652056256002085,-0.44682031359776897,0.8790092864398087,-0.7748870570296025,0.44911812142378715,0.11886487888884137,0.746821700351034,-0.77070852855569,0.8811345725780473,0.09996479094689072,-0.5784191318899791,0.7343524839201867,0.765011074619204,0.06869645789834121,0.26648090058713314,0.025089740649550454,0.26958337034172497,0.5183437336866055,0.11028265581091215,0.6389555686045609,-0.06485869965430865,0.9851977455016581,0.22991521214619015,0.4556557846510332,0.21182154314764207,-0.08997831160560685,-0.5519282171200783,-0.8343104019003764,-0.6068213470580835,-0.020604279749872487,0.2670148287601721,-0.5673044313614886,-0.32455683028107585,-0.8835181201976867,0.7883186005048367,-0.9015350540623441,0.48755579514516845,0.21127496858889078,0.1139350875516735,0.6357543167748454,-0.8833625818589068,-0.08624866719548405,-0.18461160787334452,-0.11126459411082902,-0.6836773519096553,0.7962114324122532,0.26228696417549857,-0.43799731829635835,-0.754240147688575,0.9694078207707777,-0.6454578970804863,-0.6404916091984642,-0.9454703784521002,-0.42842251198633075,0.2924305038262378,-0.7387404357685602,-0.4952581935525348,0.19343030603402891,0.7475188436252519,-0.49293061593732557,0.4474504752426488,-0.16199923823082468,-0.4175668617225299,0.15588830987356458,0.2783168484282655,-0.6786681288949701,-0.5429391313761138,-0.40402249222909237,-0.6806698874484699,-0.9616747171770138,0.8933088842362387,0.954349000271899,0.7186494467594854,0.701784130713849,0.007798097802617247,-0.9827801812584442,-0.8576601545196841,0.3915454820947118,0.3019502294899668,0.5665908201978768,-0.5779146491232575,0.2431974031659413,0.9922739623110594,0.41233625482699715,-0.8703617382652067,-0.7910473259250737,0.7704840608623292,0.9209054262743556,0.24556301451222398,0.004732013374822597,-0.7311677821025497,-0.694211656963674,-0.20951068417332486,0.5649097452465014,-0.5473764043498054,0.8836842705830343,-0.21076462722448325,0.13664728648864105,0.3454308229089943,-0.8052163560357598,0.8814821218478168,0.4139605766138549,0.6925752470595499,-0.8371194732355378,-0.31705538603353944,-0.9925240301332005,-0.3378648221523931,0.6391931005788477,0.3465324069875739,0.7305814850756043,0.6241370531022068,0.14314517515108072,0.15407363464279278,-0.46363171811479825,0.4781792741983785,-0.8225226164767768,-0.7373822958984865,0.812300721495475,0.08087513185038114,0.4102705792676914,0.4024291219338504,-0.5854952527332602,-0.6039282766181451,0.6266589907933054,-0.18426205531693537,-0.3169638668906813,0.5106689145116543,-0.44836522932382483,-0.9564216219637832,-0.16382312220173312,0.44219602777510714,-0.037254651122205135,0.6288029231190433,-0.04067295253251055,-0.4712641728245752,0.8048716532453276,0.40341114580156784,-0.11776830363867573,0.23118680121446722,0.9291890580105376,-0.2669596992923016,0.8619282465402148,0.5567213217462065,-0.5194728905368754,-0.3250292059608125,0.5314554847315196,-0.8240265004020633,-0.4223290373610258,-0.09651399344168585,0.6857752812976672],[-0.4892616998893895,0.06604811725311853,-0.18206783553735145,0.14181335239723375,-0.6301221304858087,-0.031528946207033046,0.003514678039428065,-0.10360131151737272,-0.2792017384608347,-0.7390900059362452,-0.45999749334602213,1.0037725768933339,0.7493482367243466,-0.7742428600860696,0.16447833593858718,0.9711697656515533,0.1646798735094318,-0.22982745073007388,0.36220789880379456,1.032306055622089,0.2730720083733519,-0.6862263184011126,0.16549370162301252,-0.831597089860365,-0.019213800167289404,0.9327779556158461,0.008335842945225302,-0.39940620380357506,0.3802494092931217,-0.662427236779057,0.577600255995797,-0.13408476326038887,-0.11267593463172132,0.8085884484654476,-0.7551481608843137,-0.13808440839954683,0.5067838455340434,0.16237334564902317,0.2713099871561355,0.268885121245927,1.112844071545412,-0.6952925245094698,0.49452894520323015,0.7066361534053273,0.7889292895882091,0.1943381715812956,-0.4539947308214907,-0.6525425388040574,-0.14924294181623993,0.3567163291889858,-0.11287466862277794,-0.4318491017070049,-0.7937303317312205,-0.06413751652489119,0.7397557253159409,0.24412918873550266,0.5312275089215425,0.6597640043454834,-0.03610865821678903,-0.18080981189749018,-0.6634009633563743,-0.5379223492915874,-0.6767649090334626,-0.14011841083431273,0.2228916132569026,-0.8900137303861241,0.47078059698941593,0.14519125151721496,-0.34875579423505654,0.7192936368058295,-0.13434549039007654,-0.8392019408009651,0.005074038386468355,-0.4307049904183187,0.7695650085822517,-0.12881287575121597,0.16676504887586882,-0.15789900996781003,0.22968808918294437,-0.38844176212270864,0.45721643218993185,0.03350567561243061,0.5402756009642581,-1.0556602579270697,-0.6245567087964989,0.01620165986796601,0.6008355573890093,0.45250592346033913,-0.3148105301868735,0.3571599123198087,-0.5185109159520765,0.5212489564375716,-0.3189399799208859,0.15407962691983193,0.5955869727539432,0.4968060959995368,0.052789422476522796,-1.031808337565588,-0.1299822259314668,0.3149811259121953,-0.46259337985064297,-1.0567192600014583,-0.8845206687840933,-0.1515162506537689,-0.2761534931569902,0.7775181060266451,-0.6660128272773224,0.9875636570809264,-0.42311955330237955,0.19509071829668667,1.036765253316568,0.6358880808979145,0.8473086224325647,-0.3006234784054774,0.43866570004411426,0.12748297622101815,-0.830515610870242,0.2932424070599025,-1.1556254040871976,-0.16558164589944002,0.16572479412390545,-0.3280046522307193,-0.9117840713718486,0.615852068277451,0.01621903965002262,-0.4847198163355798,0.10399222532645179,0.22096846116528315,-0.4615688112524219,0.21948932010085323,0.15840949520870085,-0.5072269487749369,0.5396383347991102,0.23802656794868626,-0.7693603247475652,0.4895667327502761,0.8122843577335038,-0.32811496411305596,0.4100226131087282,-1.1333660878594476,0.22697857799117876,0.11507621469071805,-0.8428571317552273,-0.6232710022055307,0.06619778196378677,-0.23890293881587196,0.2622948038164078,0.2422471657981671,0.640931896908351,0.2660284557371232,0.5681456887630917,1.0304423710943469,0.4310433462534364,0.49936681781536,0.5898265964860697,0.0687750862958878,1.0609578796552757,0.02691637321612678,-0.7586047287905545,0.3575361364216448,-0.5813129112543183,0.2513400446808355,0.6010422669155452,-0.6045419978246895,-0.3646890727389044,1.0978742251326306,1.016914208592985,-0.5747812644314417,1.0901136422691358,0.76245782556579,0.7261464917775885,-0.4598646373091998,-0.5454915884175683,0.9900681893562692,-0.6026987524732318,1.0313099481888583,-0.49879873895935767,-0.6381802617888377,0.5962553938589948,-1.1508808669800419,-0.10792194149043753,-0.5906861948678326,0.4338355720154607,-0.27612916411714084,-0.5145142417789672,0.6287591145500734,0.3909506697874766,0.41486444693647095,0.19430512774005118,-0.7149675287500524,0.11279485520193043,0.4519465405226636,-0.4753950559132746,0.38749465551730344,-0.014392023140390162,0.10576601182460299,0.717877792817534,-0.361527884192073,-0.004211307948802115,-0.1885440430867027,-1.0184807675171288,-0.09938156744349055,0.5030775801129151,-0.38969068573666565,0.6004336498742148,0.6030027797330927,-0.4500856632109701,0.547668487450753,0.20266002254481433,0.9250724332170274,-0.18819966992942866,-0.16393526979956968,-0.42017618385297795,0.15443371284461208,0.1539625086430392,0.9650425707418137,-0.41477267649491906,0.11224073918436982,-0.452677404645841,-0.40470111878885845,-0.18753817479396165,-0.6011782227353608,-0.025915238834523333,-0.7347337510747002,-0.7338475823090617,-0.3258378075599543,0.1502500121470837,0.005686511636803464,0.5476579351274927,-0.46973770630520506,-0.1615039290461458,-0.13280466081604608,-0.4518679644587228,0.4314836676324213,-0.5389861417861791,-0.6745013359233979,-0.7267820966730533,-0.12130382809273815,0.6420172089961947,0.21743450885010848,-0.4969815604615086,0.08521921849191319,-1.1545350947067532,0.7039300752497372,1.133383628471944,0.2787654340818305,-0.030141426129789945,-0.2590482373598161,-0.17778305055893845,1.0221792272206174,0.7449380505907827,1.1357141476495736,0.23963138949572763,0.5604360110026695,0.7765903104250217,1.1185920249827817,1.0129734880719088,-1.1501297777602948,0.34351882591085375,-0.8110067664920312,0.145815123009078,0.2798295846924911,0.555064419045075,-0.8849531684133923,0.11534566150226329,1.0082359652722834,0.5259410073342535,1.0874328608691985,0.5436233389075967,0.5839737735426308,0.48764453310925193,1.0102281115396932,-0.6325653333843915,0.11740501439448901,-0.4228116177548511,0.5058505088119921,-0.023155981726396064,-0.7112317939611431,0.43091875906219285,-0.1770535883399339,0.46748565517843754,-0.6100229117709663,0.12073423444945064,-1.0873376659429828,-0.7963438504740429,-0.18566652939305212,0.34279831403167044,0.8217676098883372,-0.7477299194244765,-0.22754398335382336,-0.8126776991365673,-0.6531262133468816,-0.3909355600345952,-0.020494399404652433,-0.6096468954522369,0.18898864214737154,-0.9248735593093504,-0.7491527447893069,-0.07411584529460946,-0.46067624679876656,-0.37938791202705235,-0.054468732315774634,0.802794303274366,-0.7066200267080708,0.18220010920492252,-0.696858349714167,0.4354040533170814,0.06726380607786846,-0.1924690866351903,-0.21059607831117605,-0.9006199983594786,-0.11048504683289934,-0.3860104875974822,0.12697033251879442,0.20519390385186898,-0.500177570982613,-0.4279102030647527,0.8155731107168621,0.7269040823950047,0.842451846255707,0.5630011983950124,1.1619033510267431,0.09903839725775958,0.360190530523553,-0.1992055214290322,0.3619768756975218,-0.23549347777717913,-0.05976995842179078,-0.02495797867245048,-0.48660071744530337,0.020796458388972424,0.0009935557066723612,-0.5370273851465678,-1.1118398509934455,-0.7834379677627749,-0.8890359025547742,-0.5001834623517422,0.8691545684441252,-0.01187565842419266,-0.3405448350282728,-0.015380507785097294,-0.7071997338425473,-0.06372719397083085,-0.5839764460968623,-0.42606838448394196,0.9333777404034961,0.930172989686688,-0.5341875410144851,-0.10229111508843419,0.40660704614568227,1.1610882882642406,-0.5914483321862013,0.40715809973316824,-0.7171363130382516,-0.7813213749365889,0.6436903695480589,0.9606538079472035,0.31154428947648016,0.8496026296198841,0.4229125624182176,0.8025411966044936,0.5332140306693459,0.3802846409353683,0.23225178598166776,0.3658727692342566,-0.17803128014558262,0.12736754508663575,0.13599735882409053,0.22125187955824627,-0.3813081762685203,0.025228599388463543,-0.5930071456694591,-0.7934870986408588,-0.44850887446623966,-0.8219620292537377,0.6674661792971687,-0.5371478299255649,1.0322890757715564,0.9603401363730243,0.45178563224910817,1.0827701642275502,0.3109211656712748,0.02321884703358361,-0.17769927364093446,-0.2801009073397992,-0.41604750549816283,-0.8104197051505959,-0.6552044399031436,0.45261549291605235,-0.4177338763430221,0.8053271885710628,0.017897595031635852,0.622705852096361,0.8125479867354527,0.08420109516812341,0.7122295925310437,-0.600086442183508,0.7005400526435136,-0.15079266636537808,0.09538592905068019,-0.026559868193131345],[0.5690990668414779,-0.4125776327283528,1.1683448528101323,-0.14460223992347412,0.14801515401417528,-0.16469503715183245,0.48695300966704386,-0.594816954056777,0.9960546159186731,0.34618083239523845,0.9550261477765356,0.7012628529921696,0.7473318756892351,0.24090599245374142,-0.3494092941785625,0.9889991110598224,1.2461069616518297,0.23885061442578445,0.3240684480732716,-1.1930816420900305,-0.4707826542819774,0.7181738665810997,0.5114574933527085,-0.6006869305095583,0.09466921455619341,-0.07490742968401498,-0.1833030666839174,0.63578389983336,0.7755944116381108,0.5135128008673004,-0.6801912510394355,-0.12287022084613403,0.6531654097121868,-0.5796183959715147,0.6347290986661958,1.1840382659040165,-0.17379096342019965,0.3761364333028425,0.3651984696902162,-0.20030583221864742,-0.10603761418773801,0.42192598271248527,1.0268962749620736,-0.04245967175228245,0.07211838056587754,-1.2360056676752655,0.6441004339086245,0.2550391910255046,-0.8970998087956449,0.26959997850228784,-0.232762736547905,-0.8112951664549444,0.2533925990500168,-1.3006180626974058,1.0716966851641374,0.25964921938363855,-0.5795404407908976,1.2517027935197096,0.3397239487946724,0.14611029040397713,-0.2851570530551095,0.47531704791986984,-0.012261223385319507,0.2440776185652019,-0.9906379023821117,-0.9098123777595112,0.012467131136403818,-0.5545549556284337,0.08821541606350887,0.25668698372339904,-0.9066838652382686,0.6675922396862461,0.08219740740792546,-0.7499430291734863,-0.5555449389869906,-1.244598033814546,-0.3946568743922351,0.6579687006226118,0.8495935415026035,-0.4905428274010849,-0.5140987365264923,-0.052703206252611975,0.42878149118754894,-0.39462309074683954,-0.423374949957948,0.6807494907671796,-0.9762944868204997,-0.9969353119929041,-0.13400714096968092,-0.16595503571278447,-0.7899833600926696,-0.4335164340165463,-0.8272142073189857,0.4420819438284258,-1.080889529519906,0.4072059114776923,-0.5474419887801073,0.6576817006324003,1.0354065796615683,0.9667361915190011,0.9770778315657811,-0.5604248427245733,0.7060613212961324,0.0328206018407006,-0.6024855311941821,-0.05219263674480612,-0.5817200459108088,-0.7122208607411965,-1.0678246855308169,0.05552846286469004,-0.13536872502539243,0.3530695171298754,-0.11786430996571197,-0.8485824741794101,0.4657517502130774,-0.957015322206881,0.08786576324419147,1.1874289474508226,0.6246101689611643,0.9691585293272438,1.2136350580025381,-0.4875795234372294,-1.194378499832195,-0.6655803398383279,0.16168532396793112,0.10489419432278406,0.17603209515838966,0.6349303063156351,0.29361221589235087,0.4402086269987866,-0.71849951413435,-0.8636033855983014,-0.162379066773915,-0.45420122670448454,-0.2685616449566663,0.5560613582927809,0.3710717650382356,0.3237516542166166,0.5905332554236691,0.572087401474586,0.8421709788794758,0.9592855444289916,-0.13914340128728583,0.4930743853799001,0.119130410589798,0.6282699282664079,-0.6478464993602944,0.3178200148054122,0.3293226151612225,-1.2594233088478852,-1.2296071678808174,-0.4048633061715978,-1.1388994449116912,0.13100388134623348,-0.6044976942413659,-0.9632167735786255,-0.9855244802260708,-0.31952056615782487,0.4875148680730516,-0.5631430140085739,0.4265508130218232,-0.053708916675618966,-0.5478186993682638,0.4921996166939308,0.461729747450087,-0.7837800138319531,-1.1543516577245276,-0.8367079980760419,0.06035825995894542,-0.3258857230373414,-0.7090860936894388,-0.39634838586874566,-0.5548291893245898,-0.6785713075114679,-0.5120186006034683,0.30801077929137016,-0.48603352046103937,0.16983176366812278,-0.7179903590729181,0.14445666109932664,1.114537434170914,0.9637088019563465,0.4819418126726009,0.2722596460087865,-0.5113221873957472,-1.205694605057433,-0.5214518837475167,0.29365842016391075,-0.9680166581827745,-0.39405748251269856,-1.2382947527950325,0.20919695523941825,-0.4716466372024435,-0.3939239340109185,-1.1078338034326196,-0.10789643901586184,0.1365394718319322,0.7152179285296798,-0.22823814127345454,0.8712911863046418,1.1413298249849377,-0.5196363411994381,0.06864775743098217,0.4097551606143808,0.19754926368047507,0.4050260725729722,-0.5749087717691812,-0.12519690992449356,-0.3094857271460959,-0.6162665084156457,-0.26923221816700377,0.0006918100134861295,0.36096730385988507,-0.43803545411110834,0.02983665881712419,-0.909517906935221,-0.47251733273207014,0.914329954464975,0.6159027921479592,-0.3720488353636306,1.0393517609419891,0.3549413518890654,0.3029327018654384,-0.4076789548526369,-0.8578201477542584,0.6879835962926548,-0.13543551285447678,0.33022962188994787,-0.5010869196867845,-0.14728722964087973,-0.7968455792985957,-0.2714763483603668,-0.8163573692014713,0.5065734181145882,-0.8667003585227134,0.30835013647469495,-0.31800140800364524,0.9900406154305956,-0.7239305222429498,-0.11901334707673389,0.40255282676765886,0.45777195542375826,-0.49082301498565,-0.017100351998909715,-0.14943080013273727,0.19314183802848625,0.6636476130346542,0.34493922553070067,0.33021422837744496,0.1117583627825118,0.12203501721004892,-0.6561335627466062,-0.6734819331708842,0.3561212602902373,0.5717185386403225,-1.082457336674069,0.3455500318152988,0.45426427546344783,-0.34277214907385883,0.5420359313798944,0.45374490271368795,1.1285561540495113,0.6387155391496364,-0.3451545806342662,-0.9998500782020886,-0.9954962339132518,-0.20636675508847904,0.5471403563392296,-0.9040857599681569,-0.7418357247677881,-1.2301101572254958,-0.09683690545246766,-0.8579883753207471,-0.12323080050259357,0.4011454541752948,0.5273367953960524,0.36070231300654515,0.5120985314240657,1.0028813450905707,1.2187503631046732,-1.226384876509287,0.029739901202948085,-0.28383636338063045,0.00034489315699028935,-0.19080832414503254,0.6734997756819017,-1.0279833657448587,-0.04202868885144334,0.12812666340715098,-1.210705507206791,-1.2232272132320094,-0.49725101092005075,0.570232796437687,-0.8557303073261618,0.7180888033263582,-0.8166571273953509,-0.8044723795294997,-0.5057252700038228,0.44372617504262074,0.8083018824234462,-0.49473908011586654,0.43489866867314575,-0.27120381894693013,-0.5087901988976831,0.9503611257502116,-0.15361691351621207,-0.72755387175259,0.21764476440265382,-1.101630430991195,0.273544757814918,-1.3011650879652719,-0.019709839635615685,-0.02874507484844656,-0.8037484901746779,0.31353189634223355,-0.46328753980910165,-0.1273378594332851,-0.454419953888683,1.0124992658341967,-0.2553267334199592,-0.4687298899237661,0.067900123971998,1.165209437917386,-0.21339527970846997,-0.20008008876452246,-0.14534438225133559,0.6319996584845897,-0.6166772241490563,-0.012504088564895205,0.6759423909098696,-0.4173526998981304,0.1696813369312378,-0.8715891877271538,0.25048861258231214,0.3284254411395937,1.0855363932579534,-0.19631657514919545,-0.13745151443503897,0.990239293761606,-0.9527240562631745,-0.5271330357242702,-0.6254356065344882,-0.13429467635132866,0.49132622042820534,0.8036723602177296,0.6748888269712114,1.2439242930553271,-0.6735799800586394,-0.32056640082635185,-0.13962794569622708,-0.3975335865120924,-0.5110052835913027,1.2136871822075752,0.6064525429936407,-0.5742501699771562,-0.5084560708835806,-0.4661123277217014,-0.03256750460151583,-0.09142491832765705,0.31985457564658804,0.38967352914489806,-1.2684456272016051,-0.30821072858530285,0.03367115762986064,0.49315755308121806,1.2156006449909829,-0.41312101472272045,0.8965604678641228,0.4501599214682452,-0.27368405570325877,1.171292558795016,1.011580735695783,0.8619545138340183,1.1990347321465584,-0.6735772182636348,0.8288842211239651,0.11933216788033543,-0.2656161863116363,0.19905393984984573,-0.7949136915423203,-0.5181331857422439,-1.2397283098697576,0.35351615137751424,0.02318915769217619,0.07104007716368758,-0.1470975531277309,0.7288225626784668,-0.4396074663064682,0.8779532013491518,1.2128846477439608,-0.48956833778148867,0.09088624005789007,0.1976261556613532,0.42523348713075393,0.5034595864945592,-0.548980954320205,0.24394849755533962,-0.589629970497207,0.46702027777659616,-0.5989521099572235,-0.541940577457681],[-0.4241913322040996,0.33451685989526275,0.056359854492617295,0.5934337761235814,-0.8896746401899341,-0.011385262090996814,-0.9066464802694744,0.47319399932852757,-0.8887386271923358,-0.5095696772937853,-0.24021894622785547,0.6882467568789784,-0.08469848940927527,-0.31259238876572576,-0.12497783173948175,-0.5652449910434382,-0.9149245657036839,-0.6155240779676108,0.68296939110327,-0.35183529893259907,0.4707956259819785,-0.49702573766308894,0.059803798477488096,0.6444907332081381,-0.08235209402985841,-0.5952375613170476,0.2083791234402904,0.4249230280039005,-0.6311126496895753,-0.4872321070836568,0.7278089190758524,0.1532388567012573,0.9575862088664852,-0.9805889372876281,0.07154091347774048,-0.5394240188461251,-0.5411946198598717,-0.10576768478457965,0.4062724958132156,-0.19931196224324024,0.5630271717152641,0.12450242796932323,0.34671276303498305,-0.25229973284697643,-0.8826049281625464,0.2783839166855837,0.9864026906521081,0.5666777573482106,-0.36890135194185303,-0.1313883740774414,0.12616712597089125,0.6797072859315035,-0.6199017265818115,-0.6894651719955082,0.5931051989918795,0.14696483005307598,-0.24584090629262695,0.1638170779443838,-0.8311355792387302,0.19938921649427113,-0.6722543855202546,-0.20391374676105298,-0.9335865157834614,0.0066525658088301826,0.14459459787142478,0.854229711252419,0.5992920452857599,-0.16631873029980884,0.63809959308952,-0.2993125001479002,-0.6073684333254965,0.009865936314534585,0.8006134541749232,0.5958377660289071,-0.21189660863535456,0.07366871128998292,0.3375445086737149,0.9022278726420881,0.6723765361313959,0.581131958225978,-0.6264649706543876,0.4638172827313842,0.4475720594984925,-0.14114142935841759,-0.38883828291415407,-0.8682112561726133,0.522152269300422,0.6449713088988757,-0.1259868572378674,0.9882231533578777,-0.6587478758378973,0.8817170776152455,0.7313715377794398,0.5041523825063612,0.6473526468849485,-0.08487061077771837,-0.33393753593399056,-0.5731848302884511,0.9738372211943466,-0.8245116959277984,-0.8838814829975724,0.3559428455389973,-0.11870206006203701,-0.9183441920890804,0.15021438556566732,-0.7231210993861609,0.2285242831820195,0.2199872970579097,0.08426968505709756,0.042477774002491454,-0.5097730310557398,-0.7725934323524632,-0.619167505747277,-0.8645125066191184,0.16876553129548627,0.5428516917536619,-0.758669807730888,-0.6908828027334581,0.245410363135338,0.004925546964457192,-0.7419272504727153,-0.8881157686555808,0.36485612949281104,-0.8269585004541096,-0.6814042552514417,0.09550463630422798,0.9100040672860849,0.15218024334196315,-0.15866025490286542,0.8270033820051811,0.9302205675250611,-0.7824417054958801,-0.6950050114804552,-0.02616893757063102,-0.977652291243366,0.5458747648070167,0.4616962397198256,-0.030557052121070058,0.1365182691432037,-0.7815727361984338,-0.3650855908962895,-0.13900839962126557,0.7413153911161218,-0.9323979491202744,-0.022218575086834672,-0.9622291306687444,0.8703278979517254,-0.4007911953107151,0.9123250496679612,0.6579940548076738,0.5490059677165013,0.7616509551169869,-0.6108983234000714,0.5134917881679631,0.6680265276431544,-0.2933109737007269,-0.23700081145315177,0.21697340305687898,-0.6153760285526765,0.3063935864424002,-0.12517636236698038,0.852959088238678,0.1907012161945722,-0.47133374603796446,0.1695275364748646,-0.8768069331026882,0.38689785443934105,0.6992225339836343,0.563374426895778,0.4321114070979816,0.878441777119466,-0.45158369026749107,0.8176404358213832,-0.7310501242657298,-0.06646899316200912,0.06169842818934749,0.902609824958832,-0.3744195765855585,-0.03990864108960885,0.48459514856449815,0.6688423529837867,0.8394710749239372,0.8335715077985545,0.11700829153593537,-0.40058144780083377,-0.5853833055034514,-0.2399519175428721,0.6955263276680895,0.26692679529911345,-0.12177395850025598,-0.7907971541152855,-0.452995373527671,0.05244782728625396,-0.30310222599878217,-0.639773373382745,-0.8220058091871787,0.36309681386245274,-0.9766235977793071,-0.030103491077883546,0.5565038267914161,-0.23798332335415337,-0.8618528580881272,-0.6552612616698769,-0.8455163089905281,0.3593917617671342,-0.6404762351672114,0.4978075136804147,-0.29038932584133964,-0.5141637436049383,0.23175422437560975,-0.3479375734900942,-0.03998002261060352,-0.9627409552528213,-0.14281348978685895,-0.06080098962825229,-0.6753737515350874,0.24581770363573668,-0.13598931679437182,0.41766612895832933,-0.006264027391130448,-0.27025451788380206,-0.7509076575152909,-0.7517054477391493,0.7378126441913418,0.57441172673036,0.4500269973531283,-0.00837672780961687,0.7235257744316445,0.5591531443651322,-0.1194464563769486,-0.9193166329670612,-0.677613783233025,-0.7161904667346183,0.4447773434361603,-0.45517724614278904,-0.40206993661154733,0.30008131486279865,-0.4666564471470012,0.7072331467376657,0.7841350064612648,-0.48870101965178897,-0.6899246126781288,-0.6027772275040754,-0.21330146148104182,0.26380907997375014,0.07616797073231527,-0.2658068537172478,-0.23538181742942393,-0.339963578423466,0.7693632127404825,-0.6513886087798751,-0.38985337916335455,-0.23296677177938988,0.6563768612099764,-0.9025176773639041,-0.09283366684396442,-0.5473454624226458,0.6093694332134248,0.013035005546963543,-0.709405685185393,0.46419349002773796,-0.08696616421685566,-0.6286088099168431,-0.2169068149464017,-1.0228855516687552,-0.35121715166086825,0.7321105121735748,0.44014407233378944,-0.6908736550255784,-0.7044863718777762,-0.9233346189061762,0.09151851798260768,-0.9291904406219336,0.2826756796149348,-0.31584575659375885,-0.45295978502994494,0.9615262619942385,-0.9939210935602326,-0.6743377646469603,-0.40173941940684865,-0.7336441137432447,-0.7838900274908874,-0.1924546450992077,-0.8704783390184304,0.24961638778885,0.6994260570664114,-0.08896606039306787,0.5665027442658022,0.6077160995815547,-0.0016238048901900167,0.22252293952191202,0.6251408493179177,-0.06670781830562958,0.7352822814365444,0.6028515208891162,-0.8722668377134118,-0.9116082273626448,0.6715139873626169,-0.20838047013435385,-0.04744296816108267,0.6927445072196686,-0.8744601046958912,-0.29598708607908103,0.09748884640027992,-0.09946949699775129,0.6362116498453624,0.666742201729761,0.18136519538431925,-0.5727936977559095,0.7521949817749142,0.5995574755289588,-0.3373654590026343,0.4802809820612706,-0.9153092895040459,0.2905621419603885,-0.4111160662920797,0.7997140575366534,0.7317775791826445,-0.5772012753588233,-0.5999006656059948,0.34121050959545823,0.023647302240322545,-0.693223009663874,0.10026458252081508,0.017055489185472263,-0.9381183230143699,-0.8039882141076596,0.7758879602384113,0.18657970697491918,0.3225721306230834,-0.44061319856579945,0.548425988960826,-0.34917150686979254,-0.8098983970414824,-0.6828758487055681,0.7820292926928699,0.5504321695957862,0.569959113287085,-0.01918145450753658,-0.5666810880055366,0.9005894098703487,0.5296307365091244,-0.5992296673415931,0.4558100382765819,-0.6601739908763399,0.11212767303497165,0.06272211313266371,-0.6278976959820823,-0.8771302297027411,0.106252395636377,0.2969917848146421,0.5761668059279612,-0.7904543920033866,0.9196336939675438,0.09534902251541863,0.5171598184186809,-0.04099772187038712,0.5360492862830942,-0.7188826076711192,-0.011374064226521645,-0.6712982919293032,0.19891130254408704,-0.7091863935076127,-0.21300162635053557,0.13523438611380395,0.9342309641963719,-0.37076612149384974,-0.7078255868127055,0.6029010246826697,-0.613346109370934,-0.8358215812556014,-0.5343092910548417,-0.7033430121221682,-0.39169157335815125,-0.25468782673398555,0.8851630922694688,-0.25043771869603454,-0.8698812408213695,0.05094761900471611,0.8788508833860177,0.9960836298150205,-0.31960460229095394,0.8445591869020316,0.42532554825756813,-0.7253211586006488,0.29055178817678207,0.9752443936224143,-0.1423062006775477,0.2869594622949604,0.8166519305540906,0.1001172945462088,0.3892797344669607,0.8330376396059948,0.9279839291729036,-0.479879667356644,-0.6522087859374052,-0.6890004937674316,0.8566906077034407,0.9260671237245922,-0.18171074210202479,0.34655556453215314],[1.0396925014987743,0.2697920492546264,0.4147453910335214,-0.20059416025612326,0.9863718613373973,-0.1155364004273702,-0.7279859202844806,-0.19768021161927393,0.07334704055961734,-0.6317387957633543,-0.20994497389294361,-0.10797082357673221,0.7849169666627521,0.8267053407161743,-0.599011842215213,0.00026547293813180493,-0.8196311248479398,0.7457703429635376,-0.22067538638698578,0.9760776332788073,-0.6909436618497474,-0.508274073967995,0.2059540340675997,0.16095065068550085,-0.1728614722504908,0.32214626126827706,-0.35286594639533053,0.6337879022371603,0.5431216826573909,0.5603088884582454,-0.6788819473381524,-0.58053144149021,-0.5197474724625086,-0.37292836396457196,-0.6807598984146049,-0.0662836851111465,-0.900053171660094,-0.4912686620787473,0.09536690424045317,-0.8204456547666797,0.1779737673268743,-0.5796407969492616,0.6111005044361846,-0.3921173090898847,-0.663112545920672,0.3097628598287057,-0.9845310716737053,0.1950413792682406,0.07330653109474672,0.6773052478984363,-0.6454980183917844,0.3967532379821322,0.2889808379901218,0.44488456277701666,0.22115578614375878,-0.5590612504976189,0.14518043020895813,-0.05696959844892352,-0.6819350170272265,0.46914049799493557,0.4907186625814452,-0.4699747227285553,0.2609445123279558,-0.15750736527475523,-0.7850692725483802,0.7710938283208317,-0.931553224902649,0.42306250748569757,0.6242950107514305,-0.6620930759027754,0.36804728947772253,-0.2562159138282079,-0.2705071694534095,-0.34560282049477037,0.023978618724619746,-0.7285944959126391,-0.5355497029289354,-0.29656916973156106,-0.42352764659676745,-0.687348239979525,-0.6805777442524841,-0.26424398528862564,0.743824960903448,-0.4166517087345593,0.8764563766373268,-0.1851161226199406,0.589390063180621,-0.20772079930659795,0.997652111870859,0.423952066537954,0.42621277286145515,0.3415824494401261,-0.9097645810664783,0.797550820101931,-0.5420749579154143,0.8883061843553729,-0.5758073053474188,0.22215523454721356,0.33778840562061857,0.6027230608080713,0.8857913114785493,0.2193762591333039,-0.8453779085402991,0.38655936059506685,0.7125583844742998,-0.7207427554486121,0.7453093116911724,0.11900291669499515,0.5427848138637021,-0.7183039222057919,-0.6749679906275992,-0.6083719970701017,-0.9360093870279098,-0.3890364180005527,-0.9267138440203906,-0.09339492763546627,-0.4088729721789314,-0.6055493080943118,0.09155293968913053,-0.7607416375061326,0.3400439768071868,-0.778310643723326,-0.4853615938830869,-0.75690296172323,0.27729438396146594,-0.4653208589413915,0.5124146163804919,-0.11753436813180212,0.049349118663658785,-0.7747887249457378,0.6391063994465755,0.6940097494501416,-0.8647917176663396,-0.7377346014678687,-0.5909307676930939,0.72747613646935,0.5270844327184454,0.08343848227891058,0.14370740833694431,-0.07032220294555874,-1.0256732587981425,-0.28035178688215845,-0.44033498173529123,-0.13484111055366574,-0.5348823271127087,-0.8974251863369355,0.4057508066441542,0.7864664914837802,0.26294234321722154,0.666456171617744,0.8305671841918423,-0.36858197883881993,-0.6824191789959542,-0.38039132111208146,0.4660261512686233,-0.46990318346646526,0.5367198462616041,0.7297749860190064,-0.8376772913019488,0.5898471086724899,0.7198243488953995,0.15271502753292296,0.8104067859953353,-0.11925189923734197,-0.3998210728866437,0.4719879803538407,0.7082400066051744,0.193356546618946,0.49589704318487793,0.021376445404082994,-0.16276370327577935,0.36945213898378726,0.3727060527859132,0.3175781125188153,0.20163565713645457,0.06677698720674324,-0.2897800192379147,0.3140881028236313,0.7232214555072151,0.22009596066570405,-1.0761034647208714,-0.46066683843368894,-0.48186310758485,-0.7911661893277884,1.0325126203439443,-0.05960836232862686,0.42466794500829486,-0.6365241102832675,0.24323921225935344,0.19646487028420026,0.6692352253987057,0.9588248588874557,0.6850041209911095,-0.3149984187084043,-0.6976770918185657,0.37554432629936746,0.9467202856096975,0.09839955760481442,0.3328134489673377,-0.008344469722009935,0.33209354765843035,-0.17535348474758342,0.22788270947210004,0.4365220713687201,0.47295218780428505,0.06923683013213539,-0.02485241453024169,0.19802111136678538,-0.33927476787898214,0.2173260974432816,0.14507711333514497,0.47660666553685327,1.0013742535206176,0.05749775147104066,-0.4332952789005392,0.9823603804741072,0.13572708238711814,-0.16350554205584916,-1.0392494224536948,0.04223686907509505,-0.037194296160622434,0.5059211698745425,0.34698098439256486,1.0241913381450793,0.9738767978259248,-0.3508398062390121,-0.35249355277655603,1.0740672887881983,1.0727392846397064,0.2344732275238475,0.25343831393240907,0.4008196983761838,0.5917538471443762,-0.32149265381862324,-0.2856260275637982,0.3367392537105001,-0.10072351526642481,-0.02143352910543765,-0.5042702735581434,-0.7796180450837189,-0.3900727997303239,-0.18785636293545907,-0.4121024358338742,0.32483678090328866,0.8315329741307265,0.4636694800319978,-0.6377274469861065,0.06359872827140485,-0.8970334393420744,-0.11474964974859497,0.22301570647555805,0.21276078335837248,1.0380123037538922,-0.6974008616559695,-0.46881618175304896,-0.6683500310744047,0.43855876211571215,-0.13716486016224452,-0.7350078862893975,0.07787807399694174,-0.06588896208904924,-0.14528678886491445,0.7453728387814988,-0.5559198971133449,0.8928853423036862,0.1820461613005662,-0.14544253655792103,0.15056898362051976,-0.5679139939175044,-0.0811308432009585,0.15287648797544343,-0.24526626447018096,0.028062376197339072,-0.08923450757118874,-0.05471663642601831,-0.912230276678373,0.13768545576173616,-0.2032508820207181,-0.4965984373837904,0.6861763546130841,0.6990209557159022,-0.7443864636409798,0.6979554554364513,-0.3155673587247664,-0.4435577049718552,0.35882530642409566,-0.8371515591759522,1.0464805241706001,-0.37037422385633806,0.22175569657046837,-0.6056762187207789,-0.05149492132976251,0.5356216238090659,0.9441776765653285,0.3379625417085238,0.1664006603398642,0.47442624776199016,-0.46405745126784703,-0.1015820690435821,-0.8853656769870459,0.3896251650400351,-0.43315114361090507,-0.8109070091839656,-0.2599166361624881,-0.6145442783007604,-0.35222238644781223,-0.23808448993489828,0.6940214642042497,0.8524057680487511,-0.7810058505272401,0.8414737747947295,0.5074190129347461,0.39811529840991994,-0.6298154627008289,0.47685236102222206,-0.5193347867328141,-0.07480339677822562,-0.44566930827855583,0.6806324315529223,-0.8590065008213285,-0.5010194824177893,-0.2753569532257626,1.0272334326848649,-0.2285226362086959,-0.3656862488795251,-0.7139436645114288,0.7217960459309494,0.35187873403704845,0.8253734031448365,0.33780045390449237,0.23384961921402153,0.3591043090987314,0.3246792636416385,-0.5567029423407395,0.17176317410443137,0.03348259269375674,-0.23724972027819688,-0.5596607120314622,-0.9160609171468254,0.050128095000629556,0.5983970118021187,0.3231565711182345,0.7807646381983033,-0.6997881158126773,0.8902656938593048,-0.04211656710753487,0.16301398361872482,0.7586726141131431,0.8871630978140456,-0.5224125547505616,0.6267473524802535,-0.4402218794358799,-0.8714854356592737,-0.28097057981944323,-0.38857084924972757,0.38298049009237556,-0.8864842580979148,0.6192688146744557,0.2118358114538977,0.2558686469083716,-0.5318440141895338,-0.28780880382496965,-0.8051986869103029,-0.3763923567701998,0.7539827485040482,0.42440533299252275,-0.2909736200970952,-0.6524639475087837,0.09847298119377743,-0.24674249217260996,-0.6627821316792727,0.40651656981657686,-0.06484418692295188,0.5661751203744211,-0.23608783958966448,0.567894981477825,0.3912991587205545,-0.6127272933260604,1.078058955285003,0.9954204623376832,1.0603839815378724,-0.38766669994205283,-0.8078440392420632,-0.06896609990169185,0.332253989204363,0.5763620806142984,-0.6657289543075111,0.967222341612803,-0.22254485012078856,0.6714836137358418,-0.04278247005519365,0.6146544581115065,0.10779126887682111,0.16186831694240789,0.6149141640429185,0.5191624686226772,-0.42140210337138406,0.8054602853460346,0.5504750547157979,-0.8273395232473528,0.20604034485639014],[0.27720349355312435,0.6381682729933461,0.7258465602547775,-0.2520639143666553,0.7757419363861762,0.13500068553172173,-0.34206501542747847,-1.0953534475997009,0.42214297792851374,-0.8165947108232198,0.38894275638633125,-0.6868031060485322,-0.41253781288158964,0.10900924127080484,0.6949440229371225,0.257796170156837,0.16571250447728472,-0.8369947406057823,-0.713891282158732,-0.25116309716048435,0.6374287757587637,-0.04143574709955143,-0.25987156255633714,1.1153007888393163,0.3953466208740023,0.46007277135785685,0.5468103637533709,-0.3899167612055894,0.05960931628750196,0.04476155841105705,0.49806128926776194,-0.5328180359205319,0.3468748950849295,-0.38460705634404424,-0.4055150895538384,-0.2979936780038064,-0.3368600019190734,0.49637236781981775,-0.1028379893283917,0.7613507014601318,-0.8598825157796883,-0.632251862086136,0.4633721113370549,0.14290192444123526,-0.05596904238675672,0.6196367976627388,0.34697272088801145,0.2992614361323541,0.3329200033115035,-0.6779581651112644,-0.4564657222000881,0.8435704965947026,-0.40439070396274357,0.10646416133040791,-0.8089753140165924,-0.7019799439070684,-0.616765904618806,0.4479997200925787,-0.1783803395811327,-0.7948971270169133,-0.8033040769376297,0.6954097855085364,0.09248334007085317,-0.2373804307698538,0.7663581406014306,-1.1074000756512106,0.032805231852962566,0.582197192812197,-0.43492485290701643,0.19054222178134855,-0.8500955726935685,-0.10792582754846052,-0.04164106146650101,0.31989417876811554,0.7095176646744771,0.5363588534465026,-0.6949544400125139,-0.11937875628921746,-1.0016018807146838,0.6263200154032856,0.2540558247380407,-0.05388400326922761,-0.03496529876638126,0.593028605685606,-0.6096054610905083,0.06799829835805303,-0.47378045336194397,-0.09580584784169636,0.37953716015210437,-0.7996007460224853,0.9025283994715824,-0.8310662095517519,-0.2844570733009174,0.29987174805000005,-0.46852150195633224,0.2876988671922762,0.6186192416981536,0.3230272296559381,-0.8766364171394178,0.44429560702318316,-1.032150755727811,0.09024179750704663,-0.2575992108165918,-1.0168010669624692,-0.664929416220992,-0.6055767456149813,-0.13765453887647636,1.1282386412695473,1.1109405878646401,1.1385219202271906,-0.6264466664546797,1.129475921504905,1.0336441605128606,0.47282610961617133,-0.4264312837514189,0.1106287435650416,-0.4825479238353316,-0.03633478329983311,-0.7856599391442939,-0.8784623324223482,-0.4935310165746719,-0.5011569107532198,-0.2544470095460701,0.4262060527426691,-0.492215076755243,0.6669810489234639,0.5780025214712464,-0.32132825881376026,-0.42093187343895766,1.1392026147700145,-0.43151425204565264,0.5155018171473843,-0.19278597454663957,-0.698542128489816,0.32810992280477513,0.2636318577210484,0.7014762932035802,0.9265198838439853,-0.14072244453992158,0.2823116239744331,-0.972006019765913,-0.743621935291714,-0.48651785399435177,0.8052255661191204,0.5317943808894122,-0.16547369671685205,-0.5019144989329197,-0.47047535449467426,